digraph Tree {
node [shape=box] ;
0 [label="X[5] <= 6.941\nfriedman_mse = 87.492\nsamples = 455\nvalue = -0.0"] ;
1 [label="X[12] <= 14.395\nfriedman_mse = 41.531\nsamples = 384\nvalue = -2.709"] ;
0 -> 1 [labeldistance=2.5, labelangle=45, headlabel="True"] ;
2 [label="X[7] <= 1.434\nfriedman_mse = 27.079\nsamples = 228\nvalue = 0.72"] ;
1 -> 2 ;
3 [label="X[12] <= 10.83\nfriedman_mse = 78.146\nsamples = 5\nvalue = 22.936"] ;
2 -> 3 ;
4 [label="friedman_mse = 0.0\nsamples = 4\nvalue = 27.356"] ;
3 -> 4 ;
5 [label="friedman_mse = -0.0\nsamples = 1\nvalue = 5.256"] ;
3 -> 5 ;
6 [label="X[5] <= 6.543\nfriedman_mse = 14.619\nsamples = 223\nvalue = 0.222"] ;
2 -> 6 ;
7 [label="friedman_mse = 8.173\nsamples = 176\nvalue = -1.003"] ;
6 -> 7 ;
8 [label="friedman_mse = 12.131\nsamples = 47\nvalue = 4.805"] ;
6 -> 8 ;
9 [label="X[4] <= 0.607\nfriedman_mse = 20.372\nsamples = 156\nvalue = -7.719"] ;
1 -> 9 ;
10 [label="X[0] <= 0.554\nfriedman_mse = 13.015\nsamples = 61\nvalue = -4.347"] ;
9 -> 10 ;
11 [label="friedman_mse = 6.758\nsamples = 37\nvalue = -2.735"] ;
10 -> 11 ;
12 [label="friedman_mse = 12.488\nsamples = 24\nvalue = -6.831"] ;
10 -> 12 ;
13 [label="X[12] <= 19.72\nfriedman_mse = 13.104\nsamples = 95\nvalue = -9.885"] ;
9 -> 13 ;
14 [label="friedman_mse = 6.13\nsamples = 45\nvalue = -7.372"] ;
13 -> 14 ;
15 [label="friedman_mse = 8.589\nsamples = 50\nvalue = -12.146"] ;
13 -> 15 ;
16 [label="X[5] <= 7.437\nfriedman_mse = 81.783\nsamples = 71\nvalue = 14.649"] ;
0 -> 16 [labeldistance=2.5, labelangle=-45, headlabel="False"] ;
17 [label="X[0] <= 7.393\nfriedman_mse = 41.655\nsamples = 43\nvalue = 9.452"] ;
16 -> 17 ;
18 [label="X[7] <= 1.904\nfriedman_mse = 18.835\nsamples = 40\nvalue = 10.779"] ;
17 -> 18 ;
19 [label="friedman_mse = 18.923\nsamples = 2\nvalue = 23.006"] ;
18 -> 19 ;
20 [label="friedman_mse = 10.547\nsamples = 38\nvalue = 10.135"] ;
18 -> 20 ;
21 [label="X[0] <= 54.293\nfriedman_mse = 9.307\nsamples = 3\nvalue = -8.244"] ;
17 -> 21 ;
22 [label="friedman_mse = 1.96\nsamples = 2\nvalue = -6.244"] ;
21 -> 22 ;
23 [label="friedman_mse = -0.0\nsamples = 1\nvalue = -12.244"] ;
21 -> 23 ;
24 [label="X[9] <= 534.5\nfriedman_mse = 38.208\nsamples = 28\nvalue = 22.631"] ;
16 -> 24 ;
25 [label="X[10] <= 17.9\nfriedman_mse = 18.636\nsamples = 27\nvalue = 23.497"] ;
24 -> 25 ;
26 [label="friedman_mse = 12.448\nsamples = 23\nvalue = 24.543"] ;
25 -> 26 ;
27 [label="friedman_mse = 11.737\nsamples = 4\nvalue = 17.481"] ;
25 -> 27 ;
28 [label="friedman_mse = 0.0\nsamples = 1\nvalue = -0.744"] ;
24 -> 28 ;
}
