digraph Tree {
node [shape=box] ;
0 [label="X[5] <= 6.941\nfriedman_mse = 71.898\nsamples = 455\nvalue = -0.0"] ;
1 [label="X[12] <= 14.395\nfriedman_mse = 34.979\nsamples = 384\nvalue = -2.425"] ;
0 -> 1 [labeldistance=2.5, labelangle=45, headlabel="True"] ;
2 [label="X[7] <= 1.434\nfriedman_mse = 23.455\nsamples = 228\nvalue = 0.644"] ;
1 -> 2 ;
3 [label="X[11] <= 339.985\nfriedman_mse = 62.644\nsamples = 5\nvalue = 20.536"] ;
2 -> 3 ;
4 [label="friedman_mse = 0.0\nsamples = 1\nvalue = 4.706"] ;
3 -> 4 ;
5 [label="friedman_mse = 0.0\nsamples = 4\nvalue = 24.493"] ;
3 -> 5 ;
6 [label="X[5] <= 6.543\nfriedman_mse = 13.505\nsamples = 223\nvalue = 0.198"] ;
2 -> 6 ;
7 [label="friedman_mse = 8.173\nsamples = 176\nvalue = -0.898"] ;
6 -> 7 ;
8 [label="friedman_mse = 12.131\nsamples = 47\nvalue = 4.302"] ;
6 -> 8 ;
9 [label="X[4] <= 0.607\nfriedman_mse = 17.926\nsamples = 156\nvalue = -6.911"] ;
1 -> 9 ;
10 [label="X[0] <= 0.554\nfriedman_mse = 12.221\nsamples = 61\nvalue = -3.892"] ;
9 -> 10 ;
11 [label="friedman_mse = 6.758\nsamples = 37\nvalue = -2.449"] ;
10 -> 11 ;
12 [label="friedman_mse = 12.488\nsamples = 24\nvalue = -6.116"] ;
10 -> 12 ;
13 [label="X[12] <= 19.72\nfriedman_mse = 11.977\nsamples = 95\nvalue = -8.85"] ;
9 -> 13 ;
14 [label="friedman_mse = 6.097\nsamples = 45\nvalue = -6.589"] ;
13 -> 14 ;
15 [label="friedman_mse = 8.524\nsamples = 50\nvalue = -10.885"] ;
13 -> 15 ;
16 [label="X[5] <= 7.437\nfriedman_mse = 67.727\nsamples = 71\nvalue = 13.116"] ;
0 -> 16 [labeldistance=2.5, labelangle=-45, headlabel="False"] ;
17 [label="X[4] <= 0.659\nfriedman_mse = 35.433\nsamples = 43\nvalue = 8.463"] ;
16 -> 17 ;
18 [label="X[6] <= 95.95\nfriedman_mse = 17.274\nsamples = 40\nvalue = 9.651"] ;
17 -> 18 ;
19 [label="friedman_mse = 10.547\nsamples = 38\nvalue = 9.075"] ;
18 -> 19 ;
20 [label="friedman_mse = 18.923\nsamples = 2\nvalue = 20.599"] ;
18 -> 20 ;
21 [label="X[6] <= 94.9\nfriedman_mse = 7.72\nsamples = 3\nvalue = -7.381"] ;
17 -> 21 ;
22 [label="friedman_mse = 0.0\nsamples = 1\nvalue = -10.962"] ;
21 -> 22 ;
23 [label="friedman_mse = 1.96\nsamples = 2\nvalue = -5.59"] ;
21 -> 23 ;
24 [label="X[0] <= 2.742\nfriedman_mse = 32.989\nsamples = 28\nvalue = 20.263"] ;
16 -> 24 ;
25 [label="X[10] <= 17.9\nfriedman_mse = 17.388\nsamples = 27\nvalue = 21.038"] ;
24 -> 25 ;
26 [label="friedman_mse = 12.448\nsamples = 23\nvalue = 21.975"] ;
25 -> 26 ;
27 [label="friedman_mse = 11.737\nsamples = 4\nvalue = 15.652"] ;
25 -> 27 ;
28 [label="friedman_mse = -0.0\nsamples = 1\nvalue = -0.666"] ;
24 -> 28 ;
}
