digraph Tree {
node [shape=box] ;
0 [label="X[12] <= 9.63\nfriedman_mse = 70.643\nsamples = 455\nvalue = -0.0"] ;
1 [label="X[5] <= 7.437\nfriedman_mse = 66.84\nsamples = 184\nvalue = 6.78"] ;
0 -> 1 [labeldistance=2.5, labelangle=45, headlabel="True"] ;
2 [label="X[7] <= 1.485\nfriedman_mse = 35.652\nsamples = 156\nvalue = 4.396"] ;
1 -> 2 ;
3 [label="X[5] <= 6.849\nfriedman_mse = 0.039\nsamples = 5\nvalue = 24.347"] ;
2 -> 3 ;
4 [label="friedman_mse = 0.0\nsamples = 4\nvalue = 24.248"] ;
3 -> 4 ;
5 [label="friedman_mse = -0.0\nsamples = 1\nvalue = 24.743"] ;
3 -> 5 ;
6 [label="X[5] <= 6.797\nfriedman_mse = 23.214\nsamples = 151\nvalue = 3.735"] ;
2 -> 6 ;
7 [label="friedman_mse = 11.409\nsamples = 106\nvalue = 1.5"] ;
6 -> 7 ;
8 [label="friedman_mse = 11.532\nsamples = 45\nvalue = 9.0"] ;
6 -> 8 ;
9 [label="X[8] <= 16.0\nfriedman_mse = 32.57\nsamples = 28\nvalue = 20.06"] ;
1 -> 9 ;
10 [label="X[10] <= 17.9\nfriedman_mse = 17.288\nsamples = 27\nvalue = 20.828"] ;
9 -> 10 ;
11 [label="friedman_mse = 12.448\nsamples = 23\nvalue = 21.755"] ;
10 -> 11 ;
12 [label="friedman_mse = 11.737\nsamples = 4\nvalue = 15.495"] ;
10 -> 12 ;
13 [label="friedman_mse = -0.0\nsamples = 1\nvalue = -0.659"] ;
9 -> 13 ;
14 [label="X[12] <= 15.0\nfriedman_mse = 20.83\nsamples = 271\nvalue = -4.603"] ;
0 -> 14 [labeldistance=2.5, labelangle=-45, headlabel="False"] ;
15 [label="X[5] <= 6.618\nfriedman_mse = 8.867\nsamples = 127\nvalue = -1.684"] ;
14 -> 15 ;
16 [label="X[0] <= 25.998\nfriedman_mse = 6.519\nsamples = 117\nvalue = -2.018"] ;
15 -> 16 ;
17 [label="friedman_mse = 5.896\nsamples = 116\nvalue = -1.942"] ;
16 -> 17 ;
18 [label="friedman_mse = -0.0\nsamples = 1\nvalue = -10.852"] ;
16 -> 18 ;
19 [label="X[4] <= 0.659\nfriedman_mse = 19.847\nsamples = 10\nvalue = 2.214"] ;
15 -> 19 ;
20 [label="friedman_mse = 11.72\nsamples = 9\nvalue = 3.23"] ;
19 -> 20 ;
21 [label="friedman_mse = 0.0\nsamples = 1\nvalue = -6.934"] ;
19 -> 21 ;
22 [label="X[0] <= 5.511\nfriedman_mse = 17.242\nsamples = 144\nvalue = -7.177"] ;
14 -> 22 ;
23 [label="X[6] <= 77.55\nfriedman_mse = 11.225\nsamples = 72\nvalue = -4.872"] ;
22 -> 23 ;
24 [label="friedman_mse = 2.652\nsamples = 11\nvalue = -1.287"] ;
23 -> 24 ;
25 [label="friedman_mse = 10.035\nsamples = 61\nvalue = -5.519"] ;
23 -> 25 ;
26 [label="X[12] <= 20.315\nfriedman_mse = 12.633\nsamples = 72\nvalue = -9.482"] ;
22 -> 26 ;
27 [label="friedman_mse = 10.83\nsamples = 32\nvalue = -7.452"] ;
26 -> 27 ;
28 [label="friedman_mse = 8.141\nsamples = 40\nvalue = -11.106"] ;
26 -> 28 ;
}
