digraph Tree {
node [shape=box] ;
0 [label="X[5] <= 6.941\nfriedman_mse = 68.22\nsamples = 455\nvalue = -0.0"] ;
1 [label="X[12] <= 14.395\nfriedman_mse = 33.412\nsamples = 384\nvalue = -2.355"] ;
0 -> 1 [labeldistance=2.5, labelangle=45, headlabel="True"] ;
2 [label="X[7] <= 1.434\nfriedman_mse = 22.554\nsamples = 228\nvalue = 0.624"] ;
1 -> 2 ;
3 [label="X[0] <= 10.592\nfriedman_mse = 58.177\nsamples = 5\nvalue = 19.952"] ;
2 -> 3 ;
4 [label="friedman_mse = 0.0\nsamples = 4\nvalue = 23.766"] ;
3 -> 4 ;
5 [label="friedman_mse = 0.0\nsamples = 1\nvalue = 4.697"] ;
3 -> 5 ;
6 [label="X[12] <= 7.685\nfriedman_mse = 13.191\nsamples = 223\nvalue = 0.191"] ;
2 -> 6 ;
7 [label="friedman_mse = 9.896\nsamples = 75\nvalue = 3.111"] ;
6 -> 7 ;
8 [label="friedman_mse = 8.347\nsamples = 148\nvalue = -1.29"] ;
6 -> 8 ;
9 [label="X[4] <= 0.607\nfriedman_mse = 17.364\nsamples = 156\nvalue = -6.708"] ;
1 -> 9 ;
10 [label="X[0] <= 0.554\nfriedman_mse = 12.02\nsamples = 61\nvalue = -3.761"] ;
9 -> 10 ;
11 [label="friedman_mse = 6.713\nsamples = 37\nvalue = -2.353"] ;
10 -> 11 ;
12 [label="friedman_mse = 12.428\nsamples = 24\nvalue = -5.933"] ;
10 -> 12 ;
13 [label="X[0] <= 11.369\nfriedman_mse = 11.642\nsamples = 95\nvalue = -8.6"] ;
9 -> 13 ;
14 [label="friedman_mse = 8.23\nsamples = 65\nvalue = -7.178"] ;
13 -> 14 ;
15 [label="friedman_mse = 5.157\nsamples = 30\nvalue = -11.681"] ;
13 -> 15 ;
16 [label="X[5] <= 7.437\nfriedman_mse = 64.317\nsamples = 71\nvalue = 12.735"] ;
0 -> 16 [labeldistance=2.5, labelangle=-45, headlabel="False"] ;
17 [label="X[0] <= 7.393\nfriedman_mse = 33.942\nsamples = 43\nvalue = 8.225"] ;
16 -> 17 ;
18 [label="X[6] <= 95.95\nfriedman_mse = 16.827\nsamples = 40\nvalue = 9.379"] ;
17 -> 18 ;
19 [label="friedman_mse = 10.471\nsamples = 38\nvalue = 8.817"] ;
18 -> 19 ;
20 [label="friedman_mse = 17.584\nsamples = 2\nvalue = 20.057"] ;
18 -> 20 ;
21 [label="X[6] <= 94.9\nfriedman_mse = 7.59\nsamples = 3\nvalue = -7.163"] ;
17 -> 21 ;
22 [label="friedman_mse = 0.0\nsamples = 1\nvalue = -10.706"] ;
21 -> 22 ;
23 [label="friedman_mse = 1.972\nsamples = 2\nvalue = -5.392"] ;
21 -> 23 ;
24 [label="X[11] <= 361.925\nfriedman_mse = 31.755\nsamples = 28\nvalue = 19.661"] ;
16 -> 24 ;
25 [label="friedman_mse = 0.0\nsamples = 1\nvalue = -0.646"] ;
24 -> 25 ;
26 [label="X[10] <= 17.9\nfriedman_mse = 17.093\nsamples = 27\nvalue = 20.413"] ;
24 -> 26 ;
27 [label="friedman_mse = 12.448\nsamples = 23\nvalue = 21.322"] ;
26 -> 27 ;
28 [label="friedman_mse = 11.737\nsamples = 4\nvalue = 15.187"] ;
26 -> 28 ;
}
