digraph Tree {
node [shape=box] ;
0 [label="X[5] <= 6.941\nfriedman_mse = 64.738\nsamples = 455\nvalue = -0.0"] ;
1 [label="X[12] <= 14.395\nfriedman_mse = 31.908\nsamples = 384\nvalue = -2.286"] ;
0 -> 1 [labeldistance=2.5, labelangle=45, headlabel="True"] ;
2 [label="X[7] <= 1.434\nfriedman_mse = 21.705\nsamples = 228\nvalue = 0.605"] ;
1 -> 2 ;
3 [label="X[12] <= 10.83\nfriedman_mse = 53.997\nsamples = 5\nvalue = 19.386"] ;
2 -> 3 ;
4 [label="friedman_mse = 0.0\nsamples = 4\nvalue = 23.06"] ;
3 -> 4 ;
5 [label="friedman_mse = 0.0\nsamples = 1\nvalue = 4.689"] ;
3 -> 5 ;
6 [label="X[5] <= 6.543\nfriedman_mse = 12.895\nsamples = 223\nvalue = 0.184"] ;
2 -> 6 ;
7 [label="friedman_mse = 7.973\nsamples = 176\nvalue = -0.866"] ;
6 -> 7 ;
8 [label="friedman_mse = 11.737\nsamples = 47\nvalue = 4.116"] ;
6 -> 8 ;
9 [label="X[4] <= 0.607\nfriedman_mse = 16.754\nsamples = 156\nvalue = -6.511"] ;
1 -> 9 ;
10 [label="X[0] <= 0.554\nfriedman_mse = 11.808\nsamples = 61\nvalue = -3.646"] ;
9 -> 10 ;
11 [label="friedman_mse = 6.647\nsamples = 37\nvalue = -2.266"] ;
10 -> 11 ;
12 [label="friedman_mse = 12.31\nsamples = 24\nvalue = -5.772"] ;
10 -> 12 ;
13 [label="X[0] <= 11.369\nfriedman_mse = 11.272\nsamples = 95\nvalue = -8.351"] ;
9 -> 13 ;
14 [label="friedman_mse = 8.024\nsamples = 65\nvalue = -6.965"] ;
13 -> 14 ;
15 [label="friedman_mse = 5.12\nsamples = 30\nvalue = -11.355"] ;
13 -> 15 ;
16 [label="X[5] <= 7.437\nfriedman_mse = 61.199\nsamples = 71\nvalue = 12.363"] ;
0 -> 16 [labeldistance=2.5, labelangle=-45, headlabel="False"] ;
17 [label="X[4] <= 0.659\nfriedman_mse = 32.659\nsamples = 43\nvalue = 7.991"] ;
16 -> 17 ;
18 [label="X[6] <= 95.95\nfriedman_mse = 16.39\nsamples = 40\nvalue = 9.117"] ;
17 -> 18 ;
19 [label="friedman_mse = 10.386\nsamples = 38\nvalue = 8.569"] ;
18 -> 19 ;
20 [label="friedman_mse = 16.33\nsamples = 2\nvalue = 19.53"] ;
18 -> 20 ;
21 [label="X[0] <= 54.293\nfriedman_mse = 7.431\nsamples = 3\nvalue = -7.017"] ;
17 -> 21 ;
22 [label="friedman_mse = 2.226\nsamples = 2\nvalue = -5.293"] ;
21 -> 22 ;
23 [label="friedman_mse = 0.0\nsamples = 1\nvalue = -10.466"] ;
21 -> 23 ;
24 [label="X[10] <= 19.65\nfriedman_mse = 30.593\nsamples = 28\nvalue = 19.077"] ;
16 -> 24 ;
25 [label="X[10] <= 17.9\nfriedman_mse = 16.815\nsamples = 27\nvalue = 19.807"] ;
24 -> 25 ;
26 [label="friedman_mse = 12.448\nsamples = 23\nvalue = 20.689"] ;
25 -> 26 ;
27 [label="friedman_mse = 11.737\nsamples = 4\nvalue = 14.736"] ;
25 -> 27 ;
28 [label="friedman_mse = 0.0\nsamples = 1\nvalue = -0.627"] ;
24 -> 28 ;
}
