digraph Tree {
node [shape=box] ;
0 [label="X[5] <= 6.941\nfriedman_mse = 59.386\nsamples = 455\nvalue = -0.0"] ;
1 [label="X[12] <= 14.395\nfriedman_mse = 29.572\nsamples = 384\nvalue = -2.177"] ;
0 -> 1 [labeldistance=2.5, labelangle=45, headlabel="True"] ;
2 [label="X[7] <= 1.434\nfriedman_mse = 20.356\nsamples = 228\nvalue = 0.573"] ;
1 -> 2 ;
3 [label="X[0] <= 10.592\nfriedman_mse = 47.4\nsamples = 5\nvalue = 18.487"] ;
2 -> 3 ;
4 [label="friedman_mse = 0.0\nsamples = 4\nvalue = 21.93"] ;
3 -> 4 ;
5 [label="friedman_mse = -0.0\nsamples = 1\nvalue = 4.718"] ;
3 -> 5 ;
6 [label="X[5] <= 6.543\nfriedman_mse = 12.393\nsamples = 223\nvalue = 0.172"] ;
2 -> 6 ;
7 [label="friedman_mse = 7.83\nsamples = 176\nvalue = -0.837"] ;
6 -> 7 ;
8 [label="friedman_mse = 11.387\nsamples = 47\nvalue = 3.951"] ;
6 -> 8 ;
9 [label="X[4] <= 0.607\nfriedman_mse = 15.827\nsamples = 156\nvalue = -6.197"] ;
1 -> 9 ;
10 [label="X[0] <= 0.554\nfriedman_mse = 11.478\nsamples = 61\nvalue = -3.453"] ;
9 -> 10 ;
11 [label="friedman_mse = 6.519\nsamples = 37\nvalue = -2.117"] ;
10 -> 11 ;
12 [label="friedman_mse = 12.129\nsamples = 24\nvalue = -5.513"] ;
10 -> 12 ;
13 [label="X[0] <= 11.369\nfriedman_mse = 10.683\nsamples = 95\nvalue = -7.958"] ;
9 -> 13 ;
14 [label="friedman_mse = 7.663\nsamples = 65\nvalue = -6.627"] ;
13 -> 14 ;
15 [label="friedman_mse = 5.062\nsamples = 30\nvalue = -10.844"] ;
13 -> 15 ;
16 [label="X[5] <= 7.437\nfriedman_mse = 56.361\nsamples = 71\nvalue = 11.774"] ;
0 -> 16 [labeldistance=2.5, labelangle=-45, headlabel="False"] ;
17 [label="X[4] <= 0.659\nfriedman_mse = 30.708\nsamples = 43\nvalue = 7.628"] ;
16 -> 17 ;
18 [label="X[6] <= 95.95\nfriedman_mse = 15.69\nsamples = 40\nvalue = 8.71"] ;
17 -> 18 ;
19 [label="friedman_mse = 10.238\nsamples = 38\nvalue = 8.183"] ;
18 -> 19 ;
20 [label="friedman_mse = 14.028\nsamples = 2\nvalue = 18.709"] ;
18 -> 20 ;
21 [label="X[0] <= 54.293\nfriedman_mse = 7.29\nsamples = 3\nvalue = -6.796"] ;
17 -> 21 ;
22 [label="friedman_mse = 2.733\nsamples = 2\nvalue = -5.143"] ;
21 -> 22 ;
23 [label="friedman_mse = -0.0\nsamples = 1\nvalue = -10.103"] ;
21 -> 23 ;
24 [label="X[0] <= 2.742\nfriedman_mse = 28.806\nsamples = 28\nvalue = 18.142"] ;
16 -> 24 ;
25 [label="X[10] <= 17.9\nfriedman_mse = 16.387\nsamples = 27\nvalue = 18.836"] ;
24 -> 25 ;
26 [label="friedman_mse = 12.393\nsamples = 23\nvalue = 19.68"] ;
25 -> 26 ;
27 [label="friedman_mse = 11.737\nsamples = 4\nvalue = 13.986"] ;
25 -> 27 ;
28 [label="friedman_mse = 0.0\nsamples = 1\nvalue = -0.596"] ;
24 -> 28 ;
}
