digraph Tree {
node [shape=box] ;
0 [label="X[12] <= 9.63\nfriedman_mse = 55.463\nsamples = 455\nvalue = -0.0"] ;
1 [label="X[5] <= 7.437\nfriedman_mse = 52.842\nsamples = 184\nvalue = 5.913"] ;
0 -> 1 [labeldistance=2.5, labelangle=45, headlabel="True"] ;
2 [label="X[7] <= 1.485\nfriedman_mse = 29.322\nsamples = 156\nvalue = 3.846"] ;
1 -> 2 ;
3 [label="X[12] <= 3.11\nfriedman_mse = 0.049\nsamples = 5\nvalue = 21.184"] ;
2 -> 3 ;
4 [label="friedman_mse = 0.0\nsamples = 1\nvalue = 21.627"] ;
3 -> 4 ;
5 [label="friedman_mse = 0.0\nsamples = 4\nvalue = 21.073"] ;
3 -> 5 ;
6 [label="X[5] <= 6.797\nfriedman_mse = 20.008\nsamples = 151\nvalue = 3.272"] ;
2 -> 6 ;
7 [label="friedman_mse = 10.961\nsamples = 106\nvalue = 1.319"] ;
6 -> 7 ;
8 [label="friedman_mse = 11.185\nsamples = 45\nvalue = 7.871"] ;
6 -> 8 ;
9 [label="X[0] <= 2.742\nfriedman_mse = 27.494\nsamples = 28\nvalue = 17.427"] ;
1 -> 9 ;
10 [label="X[10] <= 17.9\nfriedman_mse = 16.069\nsamples = 27\nvalue = 18.094"] ;
9 -> 10 ;
11 [label="friedman_mse = 12.288\nsamples = 23\nvalue = 18.913"] ;
10 -> 11 ;
12 [label="friedman_mse = 11.737\nsamples = 4\nvalue = 13.381"] ;
10 -> 12 ;
13 [label="friedman_mse = -0.0\nsamples = 1\nvalue = -0.573"] ;
9 -> 13 ;
14 [label="X[12] <= 19.83\nfriedman_mse = 17.392\nsamples = 271\nvalue = -4.014"] ;
0 -> 14 [labeldistance=2.5, labelangle=-45, headlabel="False"] ;
15 [label="X[12] <= 15.0\nfriedman_mse = 11.389\nsamples = 202\nvalue = -2.613"] ;
14 -> 15 ;
16 [label="X[10] <= 17.85\nfriedman_mse = 8.29\nsamples = 127\nvalue = -1.491"] ;
15 -> 16 ;
17 [label="friedman_mse = 10.392\nsamples = 36\nvalue = 0.125"] ;
16 -> 17 ;
18 [label="friedman_mse = 6.016\nsamples = 91\nvalue = -2.131"] ;
16 -> 18 ;
19 [label="X[0] <= 0.699\nfriedman_mse = 10.897\nsamples = 75\nvalue = -4.512"] ;
15 -> 19 ;
20 [label="friedman_mse = 5.528\nsamples = 30\nvalue = -2.354"] ;
19 -> 20 ;
21 [label="friedman_mse = 9.299\nsamples = 45\nvalue = -5.951"] ;
19 -> 21 ;
22 [label="X[4] <= 0.603\nfriedman_mse = 12.382\nsamples = 69\nvalue = -8.117"] ;
14 -> 22 ;
23 [label="X[7] <= 3.712\nfriedman_mse = 7.952\nsamples = 19\nvalue = -4.65"] ;
22 -> 23 ;
24 [label="friedman_mse = 6.086\nsamples = 10\nvalue = -3.003"] ;
23 -> 24 ;
25 [label="friedman_mse = 3.662\nsamples = 9\nvalue = -6.48"] ;
23 -> 25 ;
26 [label="X[9] <= 551.5\nfriedman_mse = 7.761\nsamples = 50\nvalue = -9.435"] ;
22 -> 26 ;
27 [label="friedman_mse = 2.493\nsamples = 9\nvalue = -6.117"] ;
26 -> 27 ;
28 [label="friedman_mse = 5.971\nsamples = 41\nvalue = -10.163"] ;
26 -> 28 ;
}
