digraph Tree {
node [shape=box] ;
0 [label="X[12] <= 7.685\nfriedman_mse = 52.708\nsamples = 455\nvalue = -0.0"] ;
1 [label="X[5] <= 7.437\nfriedman_mse = 47.525\nsamples = 136\nvalue = 7.253"] ;
0 -> 1 [labeldistance=2.5, labelangle=45, headlabel="True"] ;
2 [label="X[12] <= 4.915\nfriedman_mse = 22.512\nsamples = 108\nvalue = 4.749"] ;
1 -> 2 ;
3 [label="X[6] <= 94.5\nfriedman_mse = 22.713\nsamples = 33\nvalue = 8.845"] ;
2 -> 3 ;
4 [label="friedman_mse = 8.533\nsamples = 29\nvalue = 7.446"] ;
3 -> 4 ;
5 [label="friedman_mse = 8.436\nsamples = 4\nvalue = 18.988"] ;
3 -> 5 ;
6 [label="X[5] <= 7.113\nfriedman_mse = 11.795\nsamples = 75\nvalue = 2.947"] ;
2 -> 6 ;
7 [label="friedman_mse = 7.687\nsamples = 65\nvalue = 2.087"] ;
6 -> 7 ;
8 [label="friedman_mse = 2.422\nsamples = 10\nvalue = 8.538"] ;
6 -> 8 ;
9 [label="X[11] <= 361.925\nfriedman_mse = 26.573\nsamples = 28\nvalue = 16.91"] ;
1 -> 9 ;
10 [label="friedman_mse = 0.0\nsamples = 1\nvalue = -0.556"] ;
9 -> 10 ;
11 [label="X[10] <= 14.8\nfriedman_mse = 15.842\nsamples = 27\nvalue = 17.556"] ;
9 -> 11 ;
12 [label="friedman_mse = 8.027\nsamples = 14\nvalue = 19.407"] ;
11 -> 12 ;
13 [label="friedman_mse = 16.599\nsamples = 13\nvalue = 15.564"] ;
11 -> 13 ;
14 [label="X[12] <= 15.0\nfriedman_mse = 22.931\nsamples = 319\nvalue = -3.092"] ;
0 -> 14 [labeldistance=2.5, labelangle=-45, headlabel="False"] ;
15 [label="X[7] <= 1.227\nfriedman_mse = 16.773\nsamples = 175\nvalue = -0.653"] ;
14 -> 15 ;
16 [label="friedman_mse = 0.0\nsamples = 2\nvalue = 20.44"] ;
15 -> 16 ;
17 [label="X[5] <= 6.72\nfriedman_mse = 11.763\nsamples = 173\nvalue = -0.897"] ;
15 -> 17 ;
18 [label="friedman_mse = 8.188\nsamples = 157\nvalue = -1.417"] ;
17 -> 18 ;
19 [label="friedman_mse = 18.215\nsamples = 16\nvalue = 4.201"] ;
17 -> 19 ;
20 [label="X[7] <= 2.064\nfriedman_mse = 14.401\nsamples = 144\nvalue = -6.056"] ;
14 -> 20 ;
21 [label="X[9] <= 551.5\nfriedman_mse = 11.885\nsamples = 75\nvalue = -7.954"] ;
20 -> 21 ;
22 [label="friedman_mse = 2.768\nsamples = 18\nvalue = -5.295"] ;
21 -> 22 ;
23 [label="friedman_mse = 11.826\nsamples = 57\nvalue = -8.794"] ;
21 -> 23 ;
24 [label="X[0] <= 0.699\nfriedman_mse = 8.966\nsamples = 69\nvalue = -3.993"] ;
20 -> 24 ;
25 [label="friedman_mse = 5.76\nsamples = 32\nvalue = -1.994"] ;
24 -> 25 ;
26 [label="friedman_mse = 5.292\nsamples = 37\nvalue = -5.722"] ;
24 -> 26 ;
}
