digraph Tree {
node [shape=box] ;
0 [label="X[12] <= 7.685\nfriedman_mse = 50.961\nsamples = 455\nvalue = -0.0"] ;
1 [label="X[5] <= 7.437\nfriedman_mse = 45.955\nsamples = 136\nvalue = 7.113"] ;
0 -> 1 [labeldistance=2.5, labelangle=45, headlabel="True"] ;
2 [label="X[12] <= 4.915\nfriedman_mse = 21.913\nsamples = 108\nvalue = 4.66"] ;
1 -> 2 ;
3 [label="X[7] <= 2.289\nfriedman_mse = 22.012\nsamples = 33\nvalue = 8.688"] ;
2 -> 3 ;
4 [label="friedman_mse = 8.116\nsamples = 4\nvalue = 18.626"] ;
3 -> 4 ;
5 [label="friedman_mse = 8.427\nsamples = 29\nvalue = 7.317"] ;
3 -> 5 ;
6 [label="X[5] <= 7.113\nfriedman_mse = 11.591\nsamples = 75\nvalue = 2.888"] ;
2 -> 6 ;
7 [label="friedman_mse = 7.653\nsamples = 65\nvalue = 2.043"] ;
6 -> 7 ;
8 [label="friedman_mse = 2.422\nsamples = 10\nvalue = 8.377"] ;
6 -> 8 ;
9 [label="X[8] <= 16.0\nfriedman_mse = 25.987\nsamples = 28\nvalue = 16.573"] ;
1 -> 9 ;
10 [label="X[10] <= 14.8\nfriedman_mse = 15.696\nsamples = 27\nvalue = 17.207"] ;
9 -> 10 ;
11 [label="friedman_mse = 8.027\nsamples = 14\nvalue = 19.031"] ;
10 -> 11 ;
12 [label="friedman_mse = 16.513\nsamples = 13\nvalue = 15.243"] ;
10 -> 12 ;
13 [label="friedman_mse = -0.0\nsamples = 1\nvalue = -0.544"] ;
9 -> 13 ;
14 [label="X[12] <= 15.0\nfriedman_mse = 22.33\nsamples = 319\nvalue = -3.032"] ;
0 -> 14 [labeldistance=2.5, labelangle=-45, headlabel="False"] ;
15 [label="X[7] <= 1.227\nfriedman_mse = 16.451\nsamples = 175\nvalue = -0.644"] ;
14 -> 15 ;
16 [label="friedman_mse = 0.0\nsamples = 2\nvalue = 20.033"] ;
15 -> 16 ;
17 [label="X[5] <= 6.72\nfriedman_mse = 11.642\nsamples = 173\nvalue = -0.883"] ;
15 -> 17 ;
18 [label="friedman_mse = 8.166\nsamples = 157\nvalue = -1.394"] ;
17 -> 18 ;
19 [label="friedman_mse = 18.017\nsamples = 16\nvalue = 4.134"] ;
17 -> 19 ;
20 [label="X[7] <= 2.064\nfriedman_mse = 14.112\nsamples = 144\nvalue = -5.935"] ;
14 -> 20 ;
21 [label="X[9] <= 551.5\nfriedman_mse = 11.723\nsamples = 75\nvalue = -7.8"] ;
20 -> 21 ;
22 [label="friedman_mse = 2.739\nsamples = 18\nvalue = -5.193"] ;
21 -> 22 ;
23 [label="friedman_mse = 11.737\nsamples = 57\nvalue = -8.623"] ;
21 -> 23 ;
24 [label="X[0] <= 0.699\nfriedman_mse = 8.822\nsamples = 69\nvalue = -3.909"] ;
20 -> 24 ;
25 [label="friedman_mse = 5.731\nsamples = 32\nvalue = -1.946"] ;
24 -> 25 ;
26 [label="friedman_mse = 5.282\nsamples = 37\nvalue = -5.606"] ;
24 -> 26 ;
}
