digraph Tree {
node [shape=box] ;
0 [label="X[12] <= 9.63\nfriedman_mse = 41.76\nsamples = 455\nvalue = -0.0"] ;
1 [label="X[5] <= 7.141\nfriedman_mse = 40.036\nsamples = 184\nvalue = 5.018"] ;
0 -> 1 [labeldistance=2.5, labelangle=45, headlabel="True"] ;
2 [label="X[7] <= 1.485\nfriedman_mse = 22.248\nsamples = 137\nvalue = 2.605"] ;
1 -> 2 ;
3 [label="X[12] <= 3.11\nfriedman_mse = 0.08\nsamples = 5\nvalue = 17.963"] ;
2 -> 3 ;
4 [label="friedman_mse = 0.0\nsamples = 1\nvalue = 18.515"] ;
3 -> 4 ;
5 [label="friedman_mse = 0.005\nsamples = 4\nvalue = 17.825"] ;
3 -> 5 ;
6 [label="X[5] <= 6.543\nfriedman_mse = 13.816\nsamples = 132\nvalue = 2.023"] ;
2 -> 6 ;
7 [label="friedman_mse = 8.256\nsamples = 75\nvalue = 0.278"] ;
6 -> 7 ;
8 [label="friedman_mse = 11.847\nsamples = 57\nvalue = 4.32"] ;
6 -> 8 ;
9 [label="X[5] <= 7.437\nfriedman_mse = 25.474\nsamples = 47\nvalue = 12.05"] ;
1 -> 9 ;
10 [label="X[8] <= 7.5\nfriedman_mse = 3.504\nsamples = 19\nvalue = 8.158"] ;
9 -> 10 ;
11 [label="friedman_mse = 2.466\nsamples = 16\nvalue = 8.675"] ;
10 -> 11 ;
12 [label="friedman_mse = 0.003\nsamples = 3\nvalue = 5.399"] ;
10 -> 12 ;
13 [label="X[4] <= 0.683\nfriedman_mse = 23.134\nsamples = 28\nvalue = 14.69"] ;
9 -> 13 ;
14 [label="friedman_mse = 15.148\nsamples = 27\nvalue = 15.252"] ;
13 -> 14 ;
15 [label="friedman_mse = 0.0\nsamples = 1\nvalue = -0.483"] ;
13 -> 15 ;
16 [label="X[12] <= 19.83\nfriedman_mse = 14.229\nsamples = 271\nvalue = -3.407"] ;
0 -> 16 [labeldistance=2.5, labelangle=-45, headlabel="False"] ;
17 [label="X[11] <= 116.025\nfriedman_mse = 9.857\nsamples = 202\nvalue = -2.205"] ;
16 -> 17 ;
18 [label="X[0] <= 11.155\nfriedman_mse = 5.093\nsamples = 16\nvalue = -6.358"] ;
17 -> 18 ;
19 [label="friedman_mse = 3.367\nsamples = 12\nvalue = -5.462"] ;
18 -> 19 ;
20 [label="friedman_mse = 0.634\nsamples = 4\nvalue = -9.046"] ;
18 -> 20 ;
21 [label="X[10] <= 18.75\nfriedman_mse = 8.656\nsamples = 186\nvalue = -1.848"] ;
17 -> 21 ;
22 [label="friedman_mse = 7.89\nsamples = 73\nvalue = -0.59"] ;
21 -> 22 ;
23 [label="friedman_mse = 7.468\nsamples = 113\nvalue = -2.661"] ;
21 -> 23 ;
24 [label="X[4] <= 0.603\nfriedman_mse = 10.43\nsamples = 69\nvalue = -6.924"] ;
16 -> 24 ;
25 [label="X[7] <= 3.712\nfriedman_mse = 7.157\nsamples = 19\nvalue = -3.952"] ;
24 -> 25 ;
26 [label="friedman_mse = 5.426\nsamples = 10\nvalue = -2.377"] ;
25 -> 26 ;
27 [label="friedman_mse = 3.265\nsamples = 9\nvalue = -5.701"] ;
25 -> 27 ;
28 [label="X[9] <= 551.5\nfriedman_mse = 7.041\nsamples = 50\nvalue = -8.054"] ;
24 -> 28 ;
29 [label="friedman_mse = 2.493\nsamples = 9\nvalue = -5.18"] ;
28 -> 29 ;
30 [label="friedman_mse = 5.828\nsamples = 41\nvalue = -8.685"] ;
28 -> 30 ;
}
