digraph Tree {
node [shape=box] ;
0 [label="X[5] <= 6.941\nfriedman_mse = 39.774\nsamples = 455\nvalue = -0.0"] ;
1 [label="X[12] <= 14.395\nfriedman_mse = 20.942\nsamples = 384\nvalue = -1.727"] ;
0 -> 1 [labeldistance=2.5, labelangle=45, headlabel="True"] ;
2 [label="X[7] <= 1.434\nfriedman_mse = 15.217\nsamples = 228\nvalue = 0.448"] ;
1 -> 2 ;
3 [label="X[11] <= 339.985\nfriedman_mse = 24.859\nsamples = 5\nvalue = 14.814"] ;
2 -> 3 ;
4 [label="friedman_mse = 0.0\nsamples = 1\nvalue = 4.843"] ;
3 -> 4 ;
5 [label="friedman_mse = 0.007\nsamples = 4\nvalue = 17.307"] ;
3 -> 5 ;
6 [label="X[12] <= 7.685\nfriedman_mse = 10.27\nsamples = 223\nvalue = 0.126"] ;
2 -> 6 ;
7 [label="friedman_mse = 7.928\nsamples = 75\nvalue = 2.341"] ;
6 -> 7 ;
8 [label="friedman_mse = 7.713\nsamples = 148\nvalue = -0.996"] ;
6 -> 8 ;
9 [label="X[4] <= 0.607\nfriedman_mse = 12.291\nsamples = 156\nvalue = -4.905"] ;
1 -> 9 ;
10 [label="X[0] <= 0.554\nfriedman_mse = 10.054\nsamples = 61\nvalue = -2.696"] ;
9 -> 10 ;
11 [label="friedman_mse = 6.137\nsamples = 37\nvalue = -1.605"] ;
10 -> 11 ;
12 [label="friedman_mse = 11.434\nsamples = 24\nvalue = -4.377"] ;
10 -> 12 ;
13 [label="X[0] <= 11.369\nfriedman_mse = 8.578\nsamples = 95\nvalue = -6.324"] ;
9 -> 13 ;
14 [label="friedman_mse = 6.461\nsamples = 65\nvalue = -5.228"] ;
13 -> 14 ;
15 [label="friedman_mse = 4.916\nsamples = 30\nvalue = -8.7"] ;
13 -> 15 ;
16 [label="X[5] <= 7.437\nfriedman_mse = 38.285\nsamples = 71\nvalue = 9.339"] ;
0 -> 16 [labeldistance=2.5, labelangle=-45, headlabel="False"] ;
17 [label="X[0] <= 7.393\nfriedman_mse = 22.544\nsamples = 43\nvalue = 6.138"] ;
16 -> 17 ;
18 [label="X[6] <= 95.95\nfriedman_mse = 12.228\nsamples = 40\nvalue = 7.035"] ;
17 -> 18 ;
19 [label="friedman_mse = 8.903\nsamples = 38\nvalue = 6.618"] ;
18 -> 19 ;
20 [label="friedman_mse = 9.158\nsamples = 2\nvalue = 14.967"] ;
18 -> 20 ;
21 [label="X[11] <= 386.385\nfriedman_mse = 6.465\nsamples = 3\nvalue = -5.816"] ;
17 -> 21 ;
22 [label="friedman_mse = 0.0\nsamples = 1\nvalue = -2.382"] ;
21 -> 22 ;
23 [label="friedman_mse = 0.855\nsamples = 2\nvalue = -7.533"] ;
21 -> 23 ;
24 [label="X[8] <= 16.0\nfriedman_mse = 22.572\nsamples = 28\nvalue = 14.254"] ;
16 -> 24 ;
25 [label="X[10] <= 14.8\nfriedman_mse = 15.083\nsamples = 27\nvalue = 14.799"] ;
24 -> 25 ;
26 [label="friedman_mse = 7.838\nsamples = 14\nvalue = 16.529"] ;
25 -> 26 ;
27 [label="friedman_mse = 16.194\nsamples = 13\nvalue = 12.936"] ;
25 -> 27 ;
28 [label="friedman_mse = -0.0\nsamples = 1\nvalue = -0.468"] ;
24 -> 28 ;
}
