digraph Tree {
node [shape=box] ;
0 [label="X[12] <= 9.725\nfriedman_mse = 38.512\nsamples = 455\nvalue = -0.0"] ;
1 [label="X[5] <= 7.141\nfriedman_mse = 36.683\nsamples = 189\nvalue = 4.671"] ;
0 -> 1 [labeldistance=2.5, labelangle=45, headlabel="True"] ;
2 [label="X[7] <= 1.485\nfriedman_mse = 20.584\nsamples = 142\nvalue = 2.42"] ;
1 -> 2 ;
3 [label="X[11] <= 383.785\nfriedman_mse = 0.09\nsamples = 5\nvalue = 17.118"] ;
2 -> 3 ;
4 [label="friedman_mse = 0.009\nsamples = 4\nvalue = 16.973"] ;
3 -> 4 ;
5 [label="friedman_mse = -0.0\nsamples = 1\nvalue = 17.694"] ;
3 -> 5 ;
6 [label="X[5] <= 6.543\nfriedman_mse = 13.161\nsamples = 137\nvalue = 1.884"] ;
2 -> 6 ;
7 [label="friedman_mse = 8.119\nsamples = 77\nvalue = 0.212"] ;
6 -> 7 ;
8 [label="friedman_mse = 11.44\nsamples = 60\nvalue = 4.03"] ;
6 -> 8 ;
9 [label="X[5] <= 7.437\nfriedman_mse = 23.763\nsamples = 47\nvalue = 11.472"] ;
1 -> 9 ;
10 [label="X[5] <= 7.239\nfriedman_mse = 3.416\nsamples = 19\nvalue = 7.791"] ;
9 -> 10 ;
11 [label="friedman_mse = 2.764\nsamples = 10\nvalue = 8.903"] ;
10 -> 11 ;
12 [label="friedman_mse = 1.239\nsamples = 9\nvalue = 6.555"] ;
10 -> 12 ;
13 [label="X[10] <= 18.3\nfriedman_mse = 22.133\nsamples = 28\nvalue = 13.97"] ;
9 -> 13 ;
14 [label="friedman_mse = 12.492\nsamples = 25\nvalue = 14.935"] ;
13 -> 14 ;
15 [label="friedman_mse = 30.017\nsamples = 3\nvalue = 5.927"] ;
13 -> 15 ;
16 [label="X[12] <= 19.83\nfriedman_mse = 13.292\nsamples = 266\nvalue = -3.319"] ;
0 -> 16 [labeldistance=2.5, labelangle=-45, headlabel="False"] ;
17 [label="X[11] <= 116.025\nfriedman_mse = 9.351\nsamples = 197\nvalue = -2.168"] ;
16 -> 17 ;
18 [label="X[0] <= 11.155\nfriedman_mse = 4.911\nsamples = 16\nvalue = -6.088"] ;
17 -> 18 ;
19 [label="friedman_mse = 3.32\nsamples = 12\nvalue = -5.22"] ;
18 -> 19 ;
20 [label="friedman_mse = 0.637\nsamples = 4\nvalue = -8.693"] ;
18 -> 20 ;
21 [label="X[10] <= 19.65\nfriedman_mse = 8.265\nsamples = 181\nvalue = -1.821"] ;
17 -> 21 ;
22 [label="friedman_mse = 7.196\nsamples = 90\nvalue = -0.886"] ;
21 -> 22 ;
23 [label="friedman_mse = 7.601\nsamples = 91\nvalue = -2.747"] ;
21 -> 23 ;
24 [label="X[4] <= 0.603\nfriedman_mse = 9.958\nsamples = 69\nvalue = -6.606"] ;
16 -> 24 ;
25 [label="X[7] <= 3.712\nfriedman_mse = 6.949\nsamples = 19\nvalue = -3.765"] ;
24 -> 25 ;
26 [label="friedman_mse = 5.266\nsamples = 10\nvalue = -2.214"] ;
25 -> 26 ;
27 [label="friedman_mse = 3.177\nsamples = 9\nvalue = -5.488"] ;
25 -> 27 ;
28 [label="X[9] <= 551.5\nfriedman_mse = 6.869\nsamples = 50\nvalue = -7.685"] ;
24 -> 28 ;
29 [label="friedman_mse = 2.493\nsamples = 9\nvalue = -4.92"] ;
28 -> 29 ;
30 [label="friedman_mse = 5.783\nsamples = 41\nvalue = -8.292"] ;
28 -> 30 ;
}
