digraph Tree {
node [shape=box] ;
0 [label="X[12] <= 7.685\nfriedman_mse = 36.71\nsamples = 455\nvalue = -0.0"] ;
1 [label="X[5] <= 7.437\nfriedman_mse = 33.066\nsamples = 136\nvalue = 5.867"] ;
0 -> 1 [labeldistance=2.5, labelangle=45, headlabel="True"] ;
2 [label="X[12] <= 4.915\nfriedman_mse = 16.762\nsamples = 108\nvalue = 3.874"] ;
1 -> 2 ;
3 [label="X[7] <= 3.389\nfriedman_mse = 16.164\nsamples = 33\nvalue = 7.292"] ;
2 -> 3 ;
4 [label="friedman_mse = 8.293\nsamples = 5\nvalue = 14.445"] ;
3 -> 4 ;
5 [label="friedman_mse = 6.804\nsamples = 28\nvalue = 6.015"] ;
3 -> 5 ;
6 [label="X[5] <= 7.113\nfriedman_mse = 9.62\nsamples = 75\nvalue = 2.369"] ;
2 -> 6 ;
7 [label="friedman_mse = 7.191\nsamples = 65\nvalue = 1.68"] ;
6 -> 7 ;
8 [label="friedman_mse = 2.239\nsamples = 10\nvalue = 6.85"] ;
6 -> 8 ;
9 [label="X[10] <= 18.3\nfriedman_mse = 21.494\nsamples = 28\nvalue = 13.557"] ;
1 -> 9 ;
10 [label="X[0] <= 0.577\nfriedman_mse = 12.356\nsamples = 25\nvalue = 14.497"] ;
9 -> 10 ;
11 [label="friedman_mse = 12.95\nsamples = 19\nvalue = 13.606"] ;
10 -> 11 ;
12 [label="friedman_mse = 0.0\nsamples = 6\nvalue = 17.319"] ;
10 -> 12 ;
13 [label="X[2] <= 6.41\nfriedman_mse = 28.834\nsamples = 3\nvalue = 5.718"] ;
9 -> 13 ;
14 [label="friedman_mse = 0.0\nsamples = 1\nvalue = 12.597"] ;
13 -> 14 ;
15 [label="friedman_mse = 7.768\nsamples = 2\nvalue = 2.279"] ;
13 -> 15 ;
16 [label="X[12] <= 15.0\nfriedman_mse = 17.33\nsamples = 319\nvalue = -2.501"] ;
0 -> 16 [labeldistance=2.5, labelangle=-45, headlabel="False"] ;
17 [label="X[7] <= 1.227\nfriedman_mse = 13.538\nsamples = 175\nvalue = -0.539"] ;
16 -> 17 ;
18 [label="friedman_mse = 0.0\nsamples = 2\nvalue = 16.378"] ;
17 -> 18 ;
19 [label="X[5] <= 6.72\nfriedman_mse = 10.348\nsamples = 173\nvalue = -0.735"] ;
17 -> 19 ;
20 [label="friedman_mse = 7.862\nsamples = 157\nvalue = -1.161"] ;
19 -> 20 ;
21 [label="friedman_mse = 15.44\nsamples = 16\nvalue = 3.451"] ;
19 -> 21 ;
22 [label="X[7] <= 2.064\nfriedman_mse = 11.572\nsamples = 144\nvalue = -4.886"] ;
16 -> 22 ;
23 [label="X[4] <= 0.669\nfriedman_mse = 10.171\nsamples = 75\nvalue = -6.443"] ;
22 -> 23 ;
24 [label="friedman_mse = 13.197\nsamples = 22\nvalue = -4.514"] ;
23 -> 24 ;
25 [label="friedman_mse = 6.729\nsamples = 53\nvalue = -7.243"] ;
23 -> 25 ;
26 [label="X[0] <= 0.699\nfriedman_mse = 7.598\nsamples = 69\nvalue = -3.194"] ;
22 -> 26 ;
27 [label="friedman_mse = 5.486\nsamples = 32\nvalue = -1.546"] ;
26 -> 27 ;
28 [label="friedman_mse = 5.04\nsamples = 37\nvalue = -4.62"] ;
26 -> 28 ;
}
