digraph Tree {
node [shape=box] ;
0 [label="X[12] <= 5.44\nfriedman_mse = 35.007\nsamples = 455\nvalue = -0.0"] ;
1 [label="X[5] <= 7.433\nfriedman_mse = 28.64\nsamples = 70\nvalue = 8.725"] ;
0 -> 1 [labeldistance=2.5, labelangle=45, headlabel="True"] ;
2 [label="X[7] <= 2.916\nfriedman_mse = 16.02\nsamples = 46\nvalue = 6.312"] ;
1 -> 2 ;
3 [label="X[0] <= 3.061\nfriedman_mse = 7.865\nsamples = 5\nvalue = 14.044"] ;
2 -> 3 ;
4 [label="friedman_mse = 0.152\nsamples = 2\nvalue = 10.635"] ;
3 -> 4 ;
5 [label="friedman_mse = 0.094\nsamples = 3\nvalue = 16.316"] ;
3 -> 5 ;
6 [label="X[5] <= 6.785\nfriedman_mse = 8.835\nsamples = 41\nvalue = 5.369"] ;
2 -> 6 ;
7 [label="friedman_mse = 5.699\nsamples = 18\nvalue = 3.159"] ;
6 -> 7 ;
8 [label="friedman_mse = 4.475\nsamples = 23\nvalue = 7.099"] ;
6 -> 8 ;
9 [label="X[10] <= 19.65\nfriedman_mse = 20.277\nsamples = 24\nvalue = 13.35"] ;
1 -> 9 ;
10 [label="X[10] <= 14.8\nfriedman_mse = 12.353\nsamples = 23\nvalue = 13.956"] ;
9 -> 10 ;
11 [label="friedman_mse = 7.083\nsamples = 11\nvalue = 15.561"] ;
10 -> 11 ;
12 [label="friedman_mse = 12.658\nsamples = 12\nvalue = 12.485"] ;
10 -> 12 ;
13 [label="friedman_mse = -0.0\nsamples = 1\nvalue = -0.581"] ;
9 -> 13 ;
14 [label="X[12] <= 14.795\nfriedman_mse = 19.807\nsamples = 385\nvalue = -1.586"] ;
0 -> 14 [labeldistance=2.5, labelangle=-45, headlabel="False"] ;
15 [label="X[5] <= 7.083\nfriedman_mse = 15.505\nsamples = 237\nvalue = 0.343"] ;
14 -> 15 ;
16 [label="X[7] <= 1.227\nfriedman_mse = 10.991\nsamples = 219\nvalue = -0.203"] ;
15 -> 16 ;
17 [label="friedman_mse = 0.0\nsamples = 2\nvalue = 15.89"] ;
16 -> 17 ;
18 [label="friedman_mse = 8.683\nsamples = 217\nvalue = -0.351"] ;
16 -> 18 ;
19 [label="X[5] <= 7.994\nfriedman_mse = 22.712\nsamples = 18\nvalue = 6.983"] ;
15 -> 19 ;
20 [label="friedman_mse = 13.137\nsamples = 16\nvalue = 5.81"] ;
19 -> 20 ;
21 [label="friedman_mse = 0.223\nsamples = 2\nvalue = 16.368"] ;
19 -> 21 ;
22 [label="X[4] <= 0.603\nfriedman_mse = 11.187\nsamples = 148\nvalue = -4.676"] ;
14 -> 22 ;
23 [label="X[5] <= 6.843\nfriedman_mse = 9.709\nsamples = 55\nvalue = -2.59"] ;
22 -> 23 ;
24 [label="friedman_mse = 7.803\nsamples = 54\nvalue = -2.784"] ;
23 -> 24 ;
25 [label="friedman_mse = 0.0\nsamples = 1\nvalue = 7.925"] ;
23 -> 25 ;
26 [label="X[0] <= 11.369\nfriedman_mse = 7.964\nsamples = 93\nvalue = -5.91"] ;
22 -> 26 ;
27 [label="friedman_mse = 6.193\nsamples = 63\nvalue = -4.884"] ;
26 -> 27 ;
28 [label="friedman_mse = 4.829\nsamples = 30\nvalue = -8.065"] ;
26 -> 28 ;
}
