digraph Tree {
node [shape=box] ;
0 [label="X[12] <= 9.725\nfriedman_mse = 34.463\nsamples = 455\nvalue = -0.0"] ;
1 [label="X[5] <= 7.141\nfriedman_mse = 32.837\nsamples = 189\nvalue = 4.374"] ;
0 -> 1 [labeldistance=2.5, labelangle=45, headlabel="True"] ;
2 [label="X[7] <= 1.485\nfriedman_mse = 18.886\nsamples = 142\nvalue = 2.276"] ;
1 -> 2 ;
3 [label="X[11] <= 383.785\nfriedman_mse = 0.099\nsamples = 5\nvalue = 15.985"] ;
2 -> 3 ;
4 [label="friedman_mse = 0.011\nsamples = 4\nvalue = 15.834"] ;
3 -> 4 ;
5 [label="friedman_mse = 0.0\nsamples = 1\nvalue = 16.587"] ;
3 -> 5 ;
6 [label="X[5] <= 6.543\nfriedman_mse = 12.463\nsamples = 137\nvalue = 1.776"] ;
2 -> 6 ;
7 [label="friedman_mse = 8.06\nsamples = 77\nvalue = 0.207"] ;
6 -> 7 ;
8 [label="friedman_mse = 10.896\nsamples = 60\nvalue = 3.79"] ;
6 -> 8 ;
9 [label="X[5] <= 7.437\nfriedman_mse = 21.511\nsamples = 47\nvalue = 10.713"] ;
1 -> 9 ;
10 [label="X[8] <= 7.5\nfriedman_mse = 3.308\nsamples = 19\nvalue = 7.307"] ;
9 -> 10 ;
11 [label="friedman_mse = 2.339\nsamples = 16\nvalue = 7.808"] ;
10 -> 11 ;
12 [label="friedman_mse = 0.002\nsamples = 3\nvalue = 4.637"] ;
10 -> 12 ;
13 [label="X[10] <= 18.3\nfriedman_mse = 20.654\nsamples = 28\nvalue = 13.024"] ;
9 -> 13 ;
14 [label="friedman_mse = 12.184\nsamples = 25\nvalue = 13.93"] ;
13 -> 14 ;
15 [label="friedman_mse = 27.288\nsamples = 3\nvalue = 5.467"] ;
13 -> 15 ;
16 [label="X[12] <= 19.83\nfriedman_mse = 12.362\nsamples = 266\nvalue = -3.108"] ;
0 -> 16 [labeldistance=2.5, labelangle=-45, headlabel="False"] ;
17 [label="X[11] <= 116.025\nfriedman_mse = 8.911\nsamples = 197\nvalue = -2.028"] ;
16 -> 17 ;
18 [label="X[0] <= 11.155\nfriedman_mse = 4.741\nsamples = 16\nvalue = -5.753"] ;
17 -> 18 ;
19 [label="friedman_mse = 3.276\nsamples = 12\nvalue = -4.913"] ;
18 -> 19 ;
20 [label="friedman_mse = 0.682\nsamples = 4\nvalue = -8.271"] ;
18 -> 20 ;
21 [label="X[10] <= 19.65\nfriedman_mse = 7.945\nsamples = 181\nvalue = -1.699"] ;
17 -> 21 ;
22 [label="friedman_mse = 7.1\nsamples = 90\nvalue = -0.82"] ;
21 -> 22 ;
23 [label="friedman_mse = 7.262\nsamples = 91\nvalue = -2.568"] ;
21 -> 23 ;
24 [label="X[4] <= 0.603\nfriedman_mse = 9.382\nsamples = 69\nvalue = -6.191"] ;
16 -> 24 ;
25 [label="X[7] <= 3.712\nfriedman_mse = 6.749\nsamples = 19\nvalue = -3.528"] ;
24 -> 25 ;
26 [label="friedman_mse = 5.107\nsamples = 10\nvalue = -2.0"] ;
25 -> 26 ;
27 [label="friedman_mse = 3.094\nsamples = 9\nvalue = -5.227"] ;
25 -> 27 ;
28 [label="X[9] <= 551.5\nfriedman_mse = 6.665\nsamples = 50\nvalue = -7.203"] ;
24 -> 28 ;
29 [label="friedman_mse = 2.501\nsamples = 9\nvalue = -4.564"] ;
28 -> 29 ;
30 [label="friedman_mse = 5.715\nsamples = 41\nvalue = -7.782"] ;
28 -> 30 ;
}
