digraph Tree {
node [shape=box] ;
0 [label="X[12] <= 9.63\nfriedman_mse = 33.401\nsamples = 455\nvalue = -0.0"] ;
1 [label="X[5] <= 6.941\nfriedman_mse = 32.171\nsamples = 184\nvalue = 4.388"] ;
0 -> 1 [labeldistance=2.5, labelangle=45, headlabel="True"] ;
2 [label="X[7] <= 1.485\nfriedman_mse = 16.517\nsamples = 120\nvalue = 1.771"] ;
1 -> 2 ;
3 [label="X[12] <= 6.305\nfriedman_mse = 0.012\nsamples = 4\nvalue = 15.529"] ;
2 -> 3 ;
4 [label="friedman_mse = 0.0\nsamples = 2\nvalue = 15.64"] ;
3 -> 4 ;
5 [label="friedman_mse = 0.0\nsamples = 2\nvalue = 15.417"] ;
3 -> 5 ;
6 [label="X[9] <= 219.0\nfriedman_mse = 10.334\nsamples = 116\nvalue = 1.296"] ;
2 -> 6 ;
7 [label="friedman_mse = 9.912\nsamples = 4\nvalue = 9.059"] ;
6 -> 7 ;
8 [label="friedman_mse = 8.12\nsamples = 112\nvalue = 1.019"] ;
6 -> 8 ;
9 [label="X[5] <= 7.437\nfriedman_mse = 24.586\nsamples = 64\nvalue = 9.296"] ;
1 -> 9 ;
10 [label="X[6] <= 88.95\nfriedman_mse = 11.263\nsamples = 36\nvalue = 6.598"] ;
9 -> 10 ;
11 [label="friedman_mse = 8.174\nsamples = 32\nvalue = 5.968"] ;
10 -> 11 ;
12 [label="friedman_mse = 7.343\nsamples = 4\nvalue = 11.643"] ;
10 -> 12 ;
13 [label="X[10] <= 19.65\nfriedman_mse = 20.328\nsamples = 28\nvalue = 12.765"] ;
9 -> 13 ;
14 [label="friedman_mse = 14.196\nsamples = 27\nvalue = 13.26"] ;
13 -> 14 ;
15 [label="friedman_mse = -0.0\nsamples = 1\nvalue = -0.624"] ;
13 -> 15 ;
16 [label="X[12] <= 19.83\nfriedman_mse = 12.286\nsamples = 271\nvalue = -2.979"] ;
0 -> 16 [labeldistance=2.5, labelangle=-45, headlabel="False"] ;
17 [label="X[11] <= 116.025\nfriedman_mse = 8.943\nsamples = 202\nvalue = -1.922"] ;
16 -> 17 ;
18 [label="X[0] <= 11.155\nfriedman_mse = 4.676\nsamples = 16\nvalue = -5.653"] ;
17 -> 18 ;
19 [label="friedman_mse = 3.259\nsamples = 12\nvalue = -4.824"] ;
18 -> 19 ;
20 [label="friedman_mse = 0.68\nsamples = 4\nvalue = -8.14"] ;
18 -> 20 ;
21 [label="X[10] <= 17.85\nfriedman_mse = 8.009\nsamples = 186\nvalue = -1.601"] ;
17 -> 21 ;
22 [label="friedman_mse = 8.875\nsamples = 46\nvalue = -0.02"] ;
21 -> 22 ;
23 [label="friedman_mse = 6.633\nsamples = 140\nvalue = -2.121"] ;
21 -> 23 ;
24 [label="X[4] <= 0.603\nfriedman_mse = 9.224\nsamples = 69\nvalue = -6.074"] ;
16 -> 24 ;
25 [label="X[7] <= 3.712\nfriedman_mse = 6.671\nsamples = 19\nvalue = -3.458"] ;
24 -> 25 ;
26 [label="friedman_mse = 5.057\nsamples = 10\nvalue = -1.941"] ;
25 -> 26 ;
27 [label="friedman_mse = 3.068\nsamples = 9\nvalue = -5.143"] ;
25 -> 27 ;
28 [label="X[9] <= 551.5\nfriedman_mse = 6.604\nsamples = 50\nvalue = -7.069"] ;
24 -> 28 ;
29 [label="friedman_mse = 2.501\nsamples = 9\nvalue = -4.478"] ;
28 -> 29 ;
30 [label="friedman_mse = 5.709\nsamples = 41\nvalue = -7.637"] ;
28 -> 30 ;
}
