digraph Tree {
node [shape=box] ;
0 [label="X[12] <= 5.44\nfriedman_mse = 32.883\nsamples = 455\nvalue = -0.0"] ;
1 [label="X[5] <= 7.433\nfriedman_mse = 26.87\nsamples = 70\nvalue = 8.405"] ;
0 -> 1 [labeldistance=2.5, labelangle=45, headlabel="True"] ;
2 [label="X[6] <= 84.55\nfriedman_mse = 15.125\nsamples = 46\nvalue = 6.097"] ;
1 -> 2 ;
3 [label="X[5] <= 6.785\nfriedman_mse = 8.544\nsamples = 41\nvalue = 5.193"] ;
2 -> 3 ;
4 [label="friedman_mse = 5.603\nsamples = 18\nvalue = 3.05"] ;
3 -> 4 ;
5 [label="friedman_mse = 4.44\nsamples = 23\nvalue = 6.87"] ;
3 -> 5 ;
6 [label="X[12] <= 4.16\nfriedman_mse = 7.378\nsamples = 5\nvalue = 13.513"] ;
2 -> 6 ;
7 [label="friedman_mse = 0.104\nsamples = 3\nvalue = 15.712"] ;
6 -> 7 ;
8 [label="friedman_mse = 0.168\nsamples = 2\nvalue = 10.216"] ;
6 -> 8 ;
9 [label="X[8] <= 16.0\nfriedman_mse = 19.596\nsamples = 24\nvalue = 12.83"] ;
1 -> 9 ;
10 [label="X[10] <= 14.8\nfriedman_mse = 12.244\nsamples = 23\nvalue = 13.414"] ;
9 -> 10 ;
11 [label="friedman_mse = 7.036\nsamples = 11\nvalue = 14.99"] ;
10 -> 11 ;
12 [label="friedman_mse = 12.656\nsamples = 12\nvalue = 11.97"] ;
10 -> 12 ;
13 [label="friedman_mse = -0.0\nsamples = 1\nvalue = -0.618"] ;
9 -> 13 ;
14 [label="X[12] <= 14.795\nfriedman_mse = 18.795\nsamples = 385\nvalue = -1.528"] ;
0 -> 14 [labeldistance=2.5, labelangle=-45, headlabel="False"] ;
15 [label="X[5] <= 7.083\nfriedman_mse = 14.848\nsamples = 237\nvalue = 0.327"] ;
14 -> 15 ;
16 [label="X[7] <= 1.227\nfriedman_mse = 10.673\nsamples = 219\nvalue = -0.197"] ;
15 -> 16 ;
17 [label="friedman_mse = 0.0\nsamples = 2\nvalue = 15.263"] ;
16 -> 17 ;
18 [label="friedman_mse = 8.549\nsamples = 217\nvalue = -0.339"] ;
16 -> 18 ;
19 [label="X[0] <= 10.217\nfriedman_mse = 21.618\nsamples = 18\nvalue = 6.706"] ;
15 -> 19 ;
20 [label="friedman_mse = 11.839\nsamples = 17\nvalue = 7.489"] ;
19 -> 20 ;
21 [label="friedman_mse = 0.0\nsamples = 1\nvalue = -6.614"] ;
19 -> 21 ;
22 [label="X[4] <= 0.603\nfriedman_mse = 10.769\nsamples = 148\nvalue = -4.5"] ;
14 -> 22 ;
23 [label="X[5] <= 6.843\nfriedman_mse = 9.506\nsamples = 55\nvalue = -2.487"] ;
22 -> 23 ;
24 [label="friedman_mse = 7.624\nsamples = 54\nvalue = -2.68"] ;
23 -> 24 ;
25 [label="friedman_mse = -0.0\nsamples = 1\nvalue = 7.96"] ;
23 -> 25 ;
26 [label="X[0] <= 9.87\nfriedman_mse = 7.702\nsamples = 93\nvalue = -5.69"] ;
22 -> 26 ;
27 [label="friedman_mse = 5.375\nsamples = 55\nvalue = -4.494"] ;
26 -> 27 ;
28 [label="friedman_mse = 6.006\nsamples = 38\nvalue = -7.421"] ;
26 -> 28 ;
}
