digraph Tree {
node [shape=box] ;
0 [label="X[12] <= 7.685\nfriedman_mse = 32.378\nsamples = 455\nvalue = -0.0"] ;
1 [label="X[5] <= 7.437\nfriedman_mse = 29.072\nsamples = 136\nvalue = 5.438"] ;
0 -> 1 [labeldistance=2.5, labelangle=45, headlabel="True"] ;
2 [label="X[12] <= 4.915\nfriedman_mse = 15.066\nsamples = 108\nvalue = 3.603"] ;
1 -> 2 ;
3 [label="X[0] <= 0.868\nfriedman_mse = 14.4\nsamples = 33\nvalue = 6.776"] ;
2 -> 3 ;
4 [label="friedman_mse = 6.844\nsamples = 29\nvalue = 5.739"] ;
3 -> 4 ;
5 [label="friedman_mse = 4.822\nsamples = 4\nvalue = 14.297"] ;
3 -> 5 ;
6 [label="X[5] <= 7.113\nfriedman_mse = 8.979\nsamples = 75\nvalue = 2.207"] ;
2 -> 6 ;
7 [label="friedman_mse = 7.037\nsamples = 65\nvalue = 1.576"] ;
6 -> 7 ;
8 [label="friedman_mse = 2.187\nsamples = 10\nvalue = 6.309"] ;
6 -> 8 ;
9 [label="X[10] <= 18.3\nfriedman_mse = 20.008\nsamples = 28\nvalue = 12.516"] ;
1 -> 9 ;
10 [label="X[0] <= 0.577\nfriedman_mse = 12.095\nsamples = 25\nvalue = 13.396"] ;
9 -> 10 ;
11 [label="friedman_mse = 12.841\nsamples = 19\nvalue = 12.538"] ;
10 -> 11 ;
12 [label="friedman_mse = 0.0\nsamples = 6\nvalue = 16.116"] ;
10 -> 12 ;
13 [label="X[7] <= 6.637\nfriedman_mse = 25.704\nsamples = 3\nvalue = 5.182"] ;
9 -> 13 ;
14 [label="friedman_mse = 6.333\nsamples = 2\nvalue = 1.905"] ;
13 -> 14 ;
15 [label="friedman_mse = 0.0\nsamples = 1\nvalue = 11.737"] ;
13 -> 15 ;
16 [label="X[12] <= 15.0\nfriedman_mse = 15.804\nsamples = 319\nvalue = -2.318"] ;
0 -> 16 [labeldistance=2.5, labelangle=-45, headlabel="False"] ;
17 [label="X[7] <= 1.227\nfriedman_mse = 12.681\nsamples = 175\nvalue = -0.507"] ;
16 -> 17 ;
18 [label="friedman_mse = 0.0\nsamples = 2\nvalue = 15.11"] ;
17 -> 18 ;
19 [label="X[5] <= 6.72\nfriedman_mse = 9.976\nsamples = 173\nvalue = -0.687"] ;
17 -> 19 ;
20 [label="friedman_mse = 7.769\nsamples = 157\nvalue = -1.087"] ;
19 -> 20 ;
21 [label="friedman_mse = 14.683\nsamples = 16\nvalue = 3.234"] ;
19 -> 21 ;
22 [label="X[7] <= 2.064\nfriedman_mse = 10.761\nsamples = 144\nvalue = -4.52"] ;
16 -> 22 ;
23 [label="X[4] <= 0.675\nfriedman_mse = 9.589\nsamples = 75\nvalue = -5.972"] ;
22 -> 23 ;
24 [label="friedman_mse = 11.081\nsamples = 27\nvalue = -4.406"] ;
23 -> 24 ;
25 [label="friedman_mse = 6.595\nsamples = 48\nvalue = -6.852"] ;
23 -> 25 ;
26 [label="X[0] <= 0.699\nfriedman_mse = 7.256\nsamples = 69\nvalue = -2.943"] ;
22 -> 26 ;
27 [label="friedman_mse = 5.396\nsamples = 32\nvalue = -1.388"] ;
26 -> 27 ;
28 [label="friedman_mse = 4.967\nsamples = 37\nvalue = -4.287"] ;
26 -> 28 ;
}
