digraph Tree {
node [shape=box] ;
0 [label="X[12] <= 7.685\nfriedman_mse = 31.882\nsamples = 455\nvalue = -0.0"] ;
1 [label="X[5] <= 7.437\nfriedman_mse = 28.633\nsamples = 136\nvalue = 5.384"] ;
0 -> 1 [labeldistance=2.5, labelangle=45, headlabel="True"] ;
2 [label="X[12] <= 4.915\nfriedman_mse = 14.895\nsamples = 108\nvalue = 3.567"] ;
1 -> 2 ;
3 [label="X[7] <= 3.389\nfriedman_mse = 14.245\nsamples = 33\nvalue = 6.709"] ;
2 -> 3 ;
4 [label="friedman_mse = 7.109\nsamples = 5\nvalue = 13.252"] ;
3 -> 4 ;
5 [label="friedman_mse = 6.507\nsamples = 28\nvalue = 5.54"] ;
3 -> 5 ;
6 [label="X[5] <= 7.113\nfriedman_mse = 8.928\nsamples = 75\nvalue = 2.185"] ;
2 -> 6 ;
7 [label="friedman_mse = 7.037\nsamples = 65\nvalue = 1.56"] ;
6 -> 7 ;
8 [label="friedman_mse = 2.187\nsamples = 10\nvalue = 6.246"] ;
6 -> 8 ;
9 [label="X[10] <= 17.9\nfriedman_mse = 19.792\nsamples = 28\nvalue = 12.391"] ;
1 -> 9 ;
10 [label="X[0] <= 0.577\nfriedman_mse = 11.391\nsamples = 23\nvalue = 13.564"] ;
9 -> 10 ;
11 [label="friedman_mse = 12.683\nsamples = 17\nvalue = 12.721"] ;
10 -> 11 ;
12 [label="friedman_mse = 0.0\nsamples = 6\nvalue = 15.955"] ;
10 -> 12 ;
13 [label="X[2] <= 6.41\nfriedman_mse = 22.978\nsamples = 5\nvalue = 6.994"] ;
9 -> 13 ;
14 [label="friedman_mse = 5.079\nsamples = 3\nvalue = 10.4"] ;
13 -> 14 ;
15 [label="friedman_mse = 6.333\nsamples = 2\nvalue = 1.886"] ;
13 -> 15 ;
16 [label="X[12] <= 15.145\nfriedman_mse = 15.641\nsamples = 319\nvalue = -2.295"] ;
0 -> 16 [labeldistance=2.5, labelangle=-45, headlabel="False"] ;
17 [label="X[7] <= 1.227\nfriedman_mse = 12.409\nsamples = 179\nvalue = -0.546"] ;
16 -> 17 ;
18 [label="friedman_mse = 0.0\nsamples = 2\nvalue = 14.959"] ;
17 -> 18 ;
19 [label="X[5] <= 6.72\nfriedman_mse = 9.802\nsamples = 177\nvalue = -0.721"] ;
17 -> 19 ;
20 [label="friedman_mse = 7.635\nsamples = 161\nvalue = -1.111"] ;
19 -> 20 ;
21 [label="friedman_mse = 14.683\nsamples = 16\nvalue = 3.202"] ;
19 -> 21 ;
22 [label="X[4] <= 0.603\nfriedman_mse = 10.858\nsamples = 140\nvalue = -4.532"] ;
16 -> 22 ;
23 [label="X[5] <= 6.843\nfriedman_mse = 9.996\nsamples = 51\nvalue = -2.465"] ;
22 -> 23 ;
24 [label="friedman_mse = 7.994\nsamples = 50\nvalue = -2.673"] ;
23 -> 24 ;
25 [label="friedman_mse = -0.0\nsamples = 1\nvalue = 7.925"] ;
23 -> 25 ;
26 [label="X[0] <= 9.87\nfriedman_mse = 7.501\nsamples = 89\nvalue = -5.716"] ;
22 -> 26 ;
27 [label="friedman_mse = 5.433\nsamples = 52\nvalue = -4.502"] ;
26 -> 27 ;
28 [label="friedman_mse = 5.427\nsamples = 37\nvalue = -7.422"] ;
26 -> 28 ;
}
