digraph Tree {
node [shape=box] ;
0 [label="X[12] <= 9.725\nfriedman_mse = 31.391\nsamples = 455\nvalue = -0.0"] ;
1 [label="X[5] <= 7.141\nfriedman_mse = 29.981\nsamples = 189\nvalue = 4.13"] ;
0 -> 1 [labeldistance=2.5, labelangle=45, headlabel="True"] ;
2 [label="X[7] <= 1.485\nfriedman_mse = 17.611\nsamples = 142\nvalue = 2.153"] ;
1 -> 2 ;
3 [label="X[12] <= 3.11\nfriedman_mse = 0.115\nsamples = 5\nvalue = 15.091"] ;
2 -> 3 ;
4 [label="friedman_mse = 0.0\nsamples = 1\nvalue = 15.734"] ;
3 -> 4 ;
5 [label="friedman_mse = 0.015\nsamples = 4\nvalue = 14.931"] ;
3 -> 5 ;
6 [label="X[5] <= 6.543\nfriedman_mse = 11.917\nsamples = 137\nvalue = 1.681"] ;
2 -> 6 ;
7 [label="friedman_mse = 7.967\nsamples = 77\nvalue = 0.182"] ;
6 -> 7 ;
8 [label="friedman_mse = 10.408\nsamples = 60\nvalue = 3.604"] ;
6 -> 8 ;
9 [label="X[5] <= 7.437\nfriedman_mse = 19.868\nsamples = 47\nvalue = 10.103"] ;
1 -> 9 ;
10 [label="X[5] <= 7.239\nfriedman_mse = 3.232\nsamples = 19\nvalue = 6.914"] ;
9 -> 10 ;
11 [label="friedman_mse = 2.558\nsamples = 10\nvalue = 8.001"] ;
10 -> 11 ;
12 [label="friedman_mse = 1.208\nsamples = 9\nvalue = 5.706"] ;
10 -> 12 ;
13 [label="X[10] <= 17.9\nfriedman_mse = 19.571\nsamples = 28\nvalue = 12.267"] ;
9 -> 13 ;
14 [label="friedman_mse = 11.351\nsamples = 23\nvalue = 13.429"] ;
13 -> 14 ;
15 [label="friedman_mse = 22.631\nsamples = 5\nvalue = 6.924"] ;
13 -> 15 ;
16 [label="X[12] <= 19.83\nfriedman_mse = 11.663\nsamples = 266\nvalue = -2.934"] ;
0 -> 16 [labeldistance=2.5, labelangle=-45, headlabel="False"] ;
17 [label="X[11] <= 116.025\nfriedman_mse = 8.587\nsamples = 197\nvalue = -1.911"] ;
16 -> 17 ;
18 [label="X[0] <= 11.155\nfriedman_mse = 4.617\nsamples = 16\nvalue = -5.481"] ;
17 -> 18 ;
19 [label="friedman_mse = 3.249\nsamples = 12\nvalue = -4.666"] ;
18 -> 19 ;
20 [label="friedman_mse = 0.749\nsamples = 4\nvalue = -7.926"] ;
18 -> 20 ;
21 [label="X[10] <= 19.65\nfriedman_mse = 7.712\nsamples = 181\nvalue = -1.596"] ;
17 -> 21 ;
22 [label="friedman_mse = 7.02\nsamples = 90\nvalue = -0.759"] ;
21 -> 22 ;
23 [label="friedman_mse = 7.019\nsamples = 91\nvalue = -2.424"] ;
21 -> 23 ;
24 [label="X[4] <= 0.603\nfriedman_mse = 8.927\nsamples = 69\nvalue = -5.855"] ;
16 -> 24 ;
25 [label="X[7] <= 3.712\nfriedman_mse = 6.589\nsamples = 19\nvalue = -3.339"] ;
24 -> 25 ;
26 [label="friedman_mse = 5.015\nsamples = 10\nvalue = -1.836"] ;
25 -> 26 ;
27 [label="friedman_mse = 3.042\nsamples = 9\nvalue = -5.008"] ;
25 -> 27 ;
28 [label="X[9] <= 551.5\nfriedman_mse = 6.495\nsamples = 50\nvalue = -6.811"] ;
24 -> 28 ;
29 [label="friedman_mse = 2.508\nsamples = 9\nvalue = -4.283"] ;
28 -> 29 ;
30 [label="friedman_mse = 5.66\nsamples = 41\nvalue = -7.366"] ;
28 -> 30 ;
}
