digraph Tree {
node [shape=box] ;
0 [label="X[12] <= 9.725\nfriedman_mse = 29.983\nsamples = 455\nvalue = -0.0"] ;
1 [label="X[5] <= 7.141\nfriedman_mse = 28.666\nsamples = 189\nvalue = 4.014"] ;
0 -> 1 [labeldistance=2.5, labelangle=45, headlabel="True"] ;
2 [label="X[7] <= 1.485\nfriedman_mse = 17.012\nsamples = 142\nvalue = 2.096"] ;
1 -> 2 ;
3 [label="X[12] <= 3.11\nfriedman_mse = 0.114\nsamples = 5\nvalue = 14.65"] ;
2 -> 3 ;
4 [label="friedman_mse = 0.0\nsamples = 1\nvalue = 15.288"] ;
3 -> 4 ;
5 [label="friedman_mse = 0.015\nsamples = 4\nvalue = 14.491"] ;
3 -> 5 ;
6 [label="X[5] <= 6.543\nfriedman_mse = 11.666\nsamples = 137\nvalue = 1.638"] ;
2 -> 6 ;
7 [label="friedman_mse = 7.943\nsamples = 77\nvalue = 0.177"] ;
6 -> 7 ;
8 [label="friedman_mse = 10.194\nsamples = 60\nvalue = 3.512"] ;
6 -> 8 ;
9 [label="X[5] <= 7.437\nfriedman_mse = 19.164\nsamples = 47\nvalue = 9.81"] ;
1 -> 9 ;
10 [label="X[8] <= 7.5\nfriedman_mse = 3.21\nsamples = 19\nvalue = 6.719"] ;
9 -> 10 ;
11 [label="friedman_mse = 2.267\nsamples = 16\nvalue = 7.212"] ;
10 -> 11 ;
12 [label="friedman_mse = 0.003\nsamples = 3\nvalue = 4.084"] ;
10 -> 12 ;
13 [label="X[10] <= 17.9\nfriedman_mse = 19.101\nsamples = 28\nvalue = 11.908"] ;
9 -> 13 ;
14 [label="friedman_mse = 11.273\nsamples = 23\nvalue = 13.045"] ;
13 -> 14 ;
15 [label="friedman_mse = 21.853\nsamples = 5\nvalue = 6.681"] ;
13 -> 15 ;
16 [label="X[12] <= 19.83\nfriedman_mse = 11.333\nsamples = 266\nvalue = -2.852"] ;
0 -> 16 [labeldistance=2.5, labelangle=-45, headlabel="False"] ;
17 [label="X[11] <= 116.025\nfriedman_mse = 8.435\nsamples = 197\nvalue = -1.857"] ;
16 -> 17 ;
18 [label="X[7] <= 2.825\nfriedman_mse = 4.56\nsamples = 16\nvalue = -5.352"] ;
17 -> 18 ;
19 [label="friedman_mse = 2.796\nsamples = 15\nvalue = -5.712"] ;
18 -> 19 ;
20 [label="friedman_mse = -0.0\nsamples = 1\nvalue = 0.041"] ;
18 -> 20 ;
21 [label="X[9] <= 281.5\nfriedman_mse = 7.602\nsamples = 181\nvalue = -1.548"] ;
17 -> 21 ;
22 [label="friedman_mse = 7.247\nsamples = 34\nvalue = 0.148"] ;
21 -> 22 ;
23 [label="friedman_mse = 6.865\nsamples = 147\nvalue = -1.941"] ;
21 -> 23 ;
24 [label="X[4] <= 0.603\nfriedman_mse = 8.712\nsamples = 69\nvalue = -5.693"] ;
16 -> 24 ;
25 [label="X[7] <= 3.712\nfriedman_mse = 6.509\nsamples = 19\nvalue = -3.25"] ;
24 -> 25 ;
26 [label="friedman_mse = 4.975\nsamples = 10\nvalue = -1.762"] ;
25 -> 26 ;
27 [label="friedman_mse = 3.018\nsamples = 9\nvalue = -4.903"] ;
25 -> 27 ;
28 [label="X[9] <= 551.5\nfriedman_mse = 6.418\nsamples = 50\nvalue = -6.622"] ;
24 -> 28 ;
29 [label="friedman_mse = 2.516\nsamples = 9\nvalue = -4.137"] ;
28 -> 29 ;
30 [label="friedman_mse = 5.623\nsamples = 41\nvalue = -7.167"] ;
28 -> 30 ;
}
