digraph Tree {
node [shape=box] ;
0 [label="X[12] <= 7.685\nfriedman_mse = 29.09\nsamples = 455\nvalue = -0.0"] ;
1 [label="X[5] <= 7.437\nfriedman_mse = 26.061\nsamples = 136\nvalue = 5.087"] ;
0 -> 1 [labeldistance=2.5, labelangle=45, headlabel="True"] ;
2 [label="X[12] <= 5.44\nfriedman_mse = 13.764\nsamples = 108\nvalue = 3.379"] ;
1 -> 2 ;
3 [label="X[6] <= 84.55\nfriedman_mse = 13.608\nsamples = 46\nvalue = 5.664"] ;
2 -> 3 ;
4 [label="friedman_mse = 8.076\nsamples = 41\nvalue = 4.829"] ;
3 -> 4 ;
5 [label="friedman_mse = 6.269\nsamples = 5\nvalue = 12.518"] ;
3 -> 5 ;
6 [label="X[5] <= 7.121\nfriedman_mse = 7.129\nsamples = 62\nvalue = 1.683"] ;
2 -> 6 ;
7 [label="friedman_mse = 5.602\nsamples = 55\nvalue = 1.182"] ;
6 -> 7 ;
8 [label="friedman_mse = 1.608\nsamples = 7\nvalue = 5.626"] ;
6 -> 8 ;
9 [label="X[10] <= 18.3\nfriedman_mse = 18.815\nsamples = 28\nvalue = 11.677"] ;
1 -> 9 ;
10 [label="X[0] <= 0.577\nfriedman_mse = 11.811\nsamples = 25\nvalue = 12.507"] ;
9 -> 10 ;
11 [label="friedman_mse = 12.716\nsamples = 19\nvalue = 11.684"] ;
10 -> 11 ;
12 [label="friedman_mse = 0.006\nsamples = 6\nvalue = 15.114"] ;
10 -> 12 ;
13 [label="X[3] <= 0.5\nfriedman_mse = 23.502\nsamples = 3\nvalue = 4.754"] ;
9 -> 13 ;
14 [label="friedman_mse = 0.0\nsamples = 1\nvalue = 11.037"] ;
13 -> 14 ;
15 [label="friedman_mse = 5.646\nsamples = 2\nvalue = 1.613"] ;
13 -> 15 ;
16 [label="X[12] <= 15.145\nfriedman_mse = 14.644\nsamples = 319\nvalue = -2.169"] ;
0 -> 16 [labeldistance=2.5, labelangle=-45, headlabel="False"] ;
17 [label="X[7] <= 1.227\nfriedman_mse = 11.849\nsamples = 179\nvalue = -0.521"] ;
16 -> 17 ;
18 [label="friedman_mse = 0.0\nsamples = 2\nvalue = 14.082"] ;
17 -> 18 ;
19 [label="X[5] <= 6.966\nfriedman_mse = 9.546\nsamples = 177\nvalue = -0.686"] ;
17 -> 19 ;
20 [label="friedman_mse = 7.682\nsamples = 168\nvalue = -0.96"] ;
19 -> 20 ;
21 [label="friedman_mse = 16.811\nsamples = 9\nvalue = 4.425"] ;
19 -> 21 ;
22 [label="X[7] <= 2.004\nfriedman_mse = 10.312\nsamples = 140\nvalue = -4.275"] ;
16 -> 22 ;
23 [label="X[4] <= 0.603\nfriedman_mse = 9.175\nsamples = 69\nvalue = -5.783"] ;
22 -> 23 ;
24 [label="friedman_mse = 23.141\nsamples = 6\nvalue = -1.763"] ;
23 -> 24 ;
25 [label="friedman_mse = 6.16\nsamples = 63\nvalue = -6.166"] ;
23 -> 25 ;
26 [label="X[0] <= 0.699\nfriedman_mse = 7.059\nsamples = 71\nvalue = -2.81"] ;
22 -> 26 ;
27 [label="friedman_mse = 5.334\nsamples = 32\nvalue = -1.259"] ;
26 -> 27 ;
28 [label="friedman_mse = 4.882\nsamples = 39\nvalue = -4.082"] ;
26 -> 28 ;
}
