digraph Tree {
node [shape=box] ;
0 [label="X[12] <= 7.685\nfriedman_mse = 28.223\nsamples = 455\nvalue = -0.0"] ;
1 [label="X[5] <= 7.437\nfriedman_mse = 25.299\nsamples = 136\nvalue = 4.989"] ;
0 -> 1 [labeldistance=2.5, labelangle=45, headlabel="True"] ;
2 [label="X[12] <= 4.915\nfriedman_mse = 13.455\nsamples = 108\nvalue = 3.315"] ;
1 -> 2 ;
3 [label="X[9] <= 402.5\nfriedman_mse = 12.747\nsamples = 33\nvalue = 6.237"] ;
2 -> 3 ;
4 [label="friedman_mse = 6.499\nsamples = 29\nvalue = 5.287"] ;
3 -> 4 ;
5 [label="friedman_mse = 4.02\nsamples = 4\nvalue = 13.128"] ;
3 -> 5 ;
6 [label="X[5] <= 7.113\nfriedman_mse = 8.355\nsamples = 75\nvalue = 2.029"] ;
2 -> 6 ;
7 [label="friedman_mse = 6.873\nsamples = 65\nvalue = 1.459"] ;
6 -> 7 ;
8 [label="friedman_mse = 2.136\nsamples = 10\nvalue = 5.736"] ;
6 -> 8 ;
9 [label="X[4] <= 0.683\nfriedman_mse = 18.507\nsamples = 28\nvalue = 11.444"] ;
1 -> 9 ;
10 [label="X[0] <= 0.577\nfriedman_mse = 13.393\nsamples = 27\nvalue = 11.899"] ;
9 -> 10 ;
11 [label="friedman_mse = 14.049\nsamples = 21\nvalue = 11.06"] ;
10 -> 11 ;
12 [label="friedman_mse = 0.006\nsamples = 6\nvalue = 14.836"] ;
10 -> 12 ;
13 [label="friedman_mse = 0.0\nsamples = 1\nvalue = -0.844"] ;
9 -> 13 ;
14 [label="X[12] <= 15.075\nfriedman_mse = 14.335\nsamples = 319\nvalue = -2.127"] ;
0 -> 14 [labeldistance=2.5, labelangle=-45, headlabel="False"] ;
15 [label="X[7] <= 1.227\nfriedman_mse = 11.718\nsamples = 178\nvalue = -0.5"] ;
14 -> 15 ;
16 [label="friedman_mse = 0.0\nsamples = 2\nvalue = 13.8"] ;
15 -> 16 ;
17 [label="X[5] <= 6.966\nfriedman_mse = 9.501\nsamples = 176\nvalue = -0.662"] ;
15 -> 17 ;
18 [label="friedman_mse = 7.685\nsamples = 167\nvalue = -0.933"] ;
17 -> 18 ;
19 [label="friedman_mse = 16.642\nsamples = 9\nvalue = 4.357"] ;
17 -> 19 ;
20 [label="X[4] <= 0.603\nfriedman_mse = 10.077\nsamples = 141\nvalue = -4.181"] ;
14 -> 20 ;
21 [label="X[5] <= 6.843\nfriedman_mse = 9.624\nsamples = 51\nvalue = -2.27"] ;
20 -> 21 ;
22 [label="friedman_mse = 7.69\nsamples = 50\nvalue = -2.474"] ;
21 -> 22 ;
23 [label="friedman_mse = 0.0\nsamples = 1\nvalue = 7.94"] ;
21 -> 23 ;
24 [label="X[0] <= 9.87\nfriedman_mse = 7.093\nsamples = 90\nvalue = -5.264"] ;
20 -> 24 ;
25 [label="friedman_mse = 5.197\nsamples = 53\nvalue = -4.121"] ;
24 -> 25 ;
26 [label="friedman_mse = 5.261\nsamples = 37\nvalue = -6.9"] ;
24 -> 26 ;
}
