digraph Tree {
node [shape=box] ;
0 [label="X[5] <= 6.838\nfriedman_mse = 27.804\nsamples = 455\nvalue = -0.0"] ;
1 [label="X[12] <= 14.395\nfriedman_mse = 15.347\nsamples = 375\nvalue = -1.49"] ;
0 -> 1 [labeldistance=2.5, labelangle=45, headlabel="True"] ;
2 [label="X[7] <= 1.434\nfriedman_mse = 12.114\nsamples = 220\nvalue = 0.284"] ;
1 -> 2 ;
3 [label="X[11] <= 339.985\nfriedman_mse = 12.313\nsamples = 5\nvalue = 12.04"] ;
2 -> 3 ;
4 [label="friedman_mse = 0.0\nsamples = 1\nvalue = 5.026"] ;
3 -> 4 ;
5 [label="friedman_mse = 0.017\nsamples = 4\nvalue = 13.793"] ;
3 -> 5 ;
6 [label="X[5] <= 6.543\nfriedman_mse = 8.82\nsamples = 215\nvalue = 0.011"] ;
2 -> 6 ;
7 [label="friedman_mse = 6.865\nsamples = 176\nvalue = -0.577"] ;
6 -> 7 ;
8 [label="friedman_mse = 9.052\nsamples = 39\nvalue = 2.663"] ;
6 -> 8 ;
9 [label="X[0] <= 7.465\nfriedman_mse = 9.121\nsamples = 155\nvalue = -4.009"] ;
1 -> 9 ;
10 [label="X[6] <= 75.6\nfriedman_mse = 7.044\nsamples = 93\nvalue = -2.783"] ;
9 -> 10 ;
11 [label="friedman_mse = 3.341\nsamples = 13\nvalue = -0.155"] ;
10 -> 11 ;
12 [label="friedman_mse = 6.341\nsamples = 80\nvalue = -3.21"] ;
10 -> 12 ;
13 [label="X[12] <= 25.295\nfriedman_mse = 6.598\nsamples = 62\nvalue = -5.848"] ;
9 -> 13 ;
14 [label="friedman_mse = 5.255\nsamples = 46\nvalue = -5.129"] ;
13 -> 14 ;
15 [label="friedman_mse = 4.701\nsamples = 16\nvalue = -7.915"] ;
13 -> 15 ;
16 [label="X[5] <= 7.437\nfriedman_mse = 26.987\nsamples = 80\nvalue = 6.986"] ;
0 -> 16 [labeldistance=2.5, labelangle=-45, headlabel="False"] ;
17 [label="X[4] <= 0.659\nfriedman_mse = 16.004\nsamples = 52\nvalue = 4.646"] ;
16 -> 17 ;
18 [label="X[7] <= 1.97\nfriedman_mse = 10.436\nsamples = 49\nvalue = 5.242"] ;
17 -> 18 ;
19 [label="friedman_mse = 6.707\nsamples = 4\nvalue = 10.221"] ;
18 -> 19 ;
20 [label="friedman_mse = 8.368\nsamples = 45\nvalue = 4.8"] ;
18 -> 20 ;
21 [label="X[0] <= 13.929\nfriedman_mse = 6.364\nsamples = 3\nvalue = -5.089"] ;
17 -> 21 ;
22 [label="friedman_mse = 0.0\nsamples = 1\nvalue = -1.542"] ;
21 -> 22 ;
23 [label="friedman_mse = 0.108\nsamples = 2\nvalue = -6.863"] ;
21 -> 23 ;
24 [label="X[10] <= 18.3\nfriedman_mse = 18.349\nsamples = 28\nvalue = 11.33"] ;
16 -> 24 ;
25 [label="X[0] <= 0.577\nfriedman_mse = 11.69\nsamples = 25\nvalue = 12.141"] ;
24 -> 25 ;
26 [label="friedman_mse = 12.684\nsamples = 19\nvalue = 11.336"] ;
25 -> 26 ;
27 [label="friedman_mse = 0.006\nsamples = 6\nvalue = 14.688"] ;
25 -> 27 ;
28 [label="X[12] <= 4.415\nfriedman_mse = 22.677\nsamples = 3\nvalue = 4.571"] ;
24 -> 28 ;
29 [label="friedman_mse = 0.0\nsamples = 1\nvalue = 10.751"] ;
28 -> 29 ;
30 [label="friedman_mse = 5.367\nsamples = 2\nvalue = 1.481"] ;
28 -> 30 ;
}
