digraph Tree {
node [shape=box] ;
0 [label="X[12] <= 9.725\nfriedman_mse = 26.193\nsamples = 455\nvalue = -0.0"] ;
1 [label="X[5] <= 7.141\nfriedman_mse = 25.147\nsamples = 189\nvalue = 3.687"] ;
0 -> 1 [labeldistance=2.5, labelangle=45, headlabel="True"] ;
2 [label="X[7] <= 1.485\nfriedman_mse = 15.433\nsamples = 142\nvalue = 1.933"] ;
1 -> 2 ;
3 [label="X[12] <= 3.11\nfriedman_mse = 0.123\nsamples = 5\nvalue = 13.421"] ;
2 -> 3 ;
4 [label="friedman_mse = 0.0\nsamples = 1\nvalue = 14.079"] ;
3 -> 4 ;
5 [label="friedman_mse = 0.018\nsamples = 4\nvalue = 13.257"] ;
3 -> 5 ;
6 [label="X[5] <= 6.543\nfriedman_mse = 10.999\nsamples = 137\nvalue = 1.514"] ;
2 -> 6 ;
7 [label="friedman_mse = 7.878\nsamples = 77\nvalue = 0.164"] ;
6 -> 7 ;
8 [label="friedman_mse = 9.665\nsamples = 60\nvalue = 3.246"] ;
6 -> 8 ;
9 [label="X[5] <= 7.437\nfriedman_mse = 17.146\nsamples = 47\nvalue = 8.984"] ;
1 -> 9 ;
10 [label="X[5] <= 7.239\nfriedman_mse = 3.092\nsamples = 19\nvalue = 6.178"] ;
9 -> 10 ;
11 [label="friedman_mse = 2.457\nsamples = 10\nvalue = 7.237"] ;
10 -> 11 ;
12 [label="friedman_mse = 1.169\nsamples = 9\nvalue = 5.002"] ;
10 -> 12 ;
13 [label="X[10] <= 17.9\nfriedman_mse = 17.714\nsamples = 28\nvalue = 10.888"] ;
9 -> 13 ;
14 [label="friedman_mse = 11.054\nsamples = 23\nvalue = 11.949"] ;
13 -> 14 ;
15 [label="friedman_mse = 19.37\nsamples = 5\nvalue = 6.009"] ;
13 -> 15 ;
16 [label="X[12] <= 19.83\nfriedman_mse = 10.417\nsamples = 266\nvalue = -2.619"] ;
0 -> 16 [labeldistance=2.5, labelangle=-45, headlabel="False"] ;
17 [label="X[11] <= 116.025\nfriedman_mse = 7.996\nsamples = 197\nvalue = -1.703"] ;
16 -> 17 ;
18 [label="X[7] <= 2.825\nfriedman_mse = 4.38\nsamples = 16\nvalue = -4.985"] ;
17 -> 18 ;
19 [label="friedman_mse = 2.678\nsamples = 15\nvalue = -5.338"] ;
18 -> 19 ;
20 [label="friedman_mse = 0.0\nsamples = 1\nvalue = 0.309"] ;
18 -> 20 ;
21 [label="X[9] <= 281.5\nfriedman_mse = 7.28\nsamples = 181\nvalue = -1.413"] ;
17 -> 21 ;
22 [label="friedman_mse = 7.037\nsamples = 34\nvalue = 0.189"] ;
21 -> 22 ;
23 [label="friedman_mse = 6.605\nsamples = 147\nvalue = -1.784"] ;
21 -> 23 ;
24 [label="X[10] <= 19.65\nfriedman_mse = 8.093\nsamples = 69\nvalue = -5.235"] ;
16 -> 24 ;
25 [label="X[6] <= 94.05\nfriedman_mse = 6.037\nsamples = 15\nvalue = -2.571"] ;
24 -> 25 ;
26 [label="friedman_mse = 2.391\nsamples = 5\nvalue = 0.02"] ;
25 -> 26 ;
27 [label="friedman_mse = 2.824\nsamples = 10\nvalue = -3.867"] ;
25 -> 27 ;
28 [label="X[4] <= 0.675\nfriedman_mse = 6.145\nsamples = 54\nvalue = -5.975"] ;
24 -> 28 ;
29 [label="friedman_mse = 4.721\nsamples = 23\nvalue = -4.446"] ;
28 -> 29 ;
30 [label="friedman_mse = 4.18\nsamples = 31\nvalue = -7.109"] ;
28 -> 30 ;
}
