digraph Tree {
node [shape=box] ;
0 [label="X[12] <= 5.44\nfriedman_mse = 23.652\nsamples = 455\nvalue = -0.0"] ;
1 [label="X[5] <= 7.433\nfriedman_mse = 19.413\nsamples = 70\nvalue = 6.826"] ;
0 -> 1 [labeldistance=2.5, labelangle=45, headlabel="True"] ;
2 [label="X[6] <= 84.55\nfriedman_mse = 11.454\nsamples = 46\nvalue = 5.016"] ;
1 -> 2 ;
3 [label="X[5] <= 6.785\nfriedman_mse = 7.401\nsamples = 41\nvalue = 4.288"] ;
2 -> 3 ;
4 [label="friedman_mse = 5.072\nsamples = 18\nvalue = 2.414"] ;
3 -> 4 ;
5 [label="friedman_mse = 4.323\nsamples = 23\nvalue = 5.754"] ;
3 -> 5 ;
6 [label="X[0] <= 3.061\nfriedman_mse = 4.65\nsamples = 5\nvalue = 10.99"] ;
2 -> 6 ;
7 [label="friedman_mse = 0.125\nsamples = 2\nvalue = 8.382"] ;
6 -> 7 ;
8 [label="friedman_mse = 0.109\nsamples = 3\nvalue = 12.729"] ;
6 -> 8 ;
9 [label="X[9] <= 534.5\nfriedman_mse = 16.35\nsamples = 24\nvalue = 10.296"] ;
1 -> 9 ;
10 [label="X[10] <= 14.8\nfriedman_mse = 11.281\nsamples = 23\nvalue = 10.787"] ;
9 -> 10 ;
11 [label="friedman_mse = 6.57\nsamples = 11\nvalue = 12.156"] ;
10 -> 11 ;
12 [label="friedman_mse = 12.306\nsamples = 12\nvalue = 9.532"] ;
10 -> 12 ;
13 [label="friedman_mse = 0.0\nsamples = 1\nvalue = -0.991"] ;
9 -> 13 ;
14 [label="X[12] <= 14.795\nfriedman_mse = 14.409\nsamples = 385\nvalue = -1.241"] ;
0 -> 14 [labeldistance=2.5, labelangle=-45, headlabel="False"] ;
15 [label="X[5] <= 7.083\nfriedman_mse = 12.057\nsamples = 237\nvalue = 0.252"] ;
14 -> 15 ;
16 [label="X[7] <= 1.227\nfriedman_mse = 9.331\nsamples = 219\nvalue = -0.171"] ;
15 -> 16 ;
17 [label="friedman_mse = 0.0\nsamples = 2\nvalue = 12.226"] ;
16 -> 17 ;
18 [label="friedman_mse = 7.988\nsamples = 217\nvalue = -0.285"] ;
16 -> 18 ;
19 [label="X[0] <= 10.217\nfriedman_mse = 16.632\nsamples = 18\nvalue = 5.392"] ;
15 -> 19 ;
20 [label="friedman_mse = 9.024\nsamples = 17\nvalue = 6.082"] ;
19 -> 20 ;
21 [label="friedman_mse = -0.0\nsamples = 1\nvalue = -6.35"] ;
19 -> 21 ;
22 [label="X[0] <= 5.782\nfriedman_mse = 8.892\nsamples = 148\nvalue = -3.632"] ;
14 -> 22 ;
23 [label="X[2] <= 26.695\nfriedman_mse = 6.807\nsamples = 77\nvalue = -2.415"] ;
22 -> 23 ;
24 [label="friedman_mse = 5.715\nsamples = 73\nvalue = -2.174"] ;
23 -> 24 ;
25 [label="friedman_mse = 6.464\nsamples = 4\nvalue = -6.8"] ;
23 -> 25 ;
26 [label="X[12] <= 26.425\nfriedman_mse = 7.803\nsamples = 71\nvalue = -4.952"] ;
22 -> 26 ;
27 [label="friedman_mse = 6.967\nsamples = 57\nvalue = -4.403"] ;
26 -> 27 ;
28 [label="friedman_mse = 4.994\nsamples = 14\nvalue = -7.185"] ;
26 -> 28 ;
}
