digraph Tree {
node [shape=box] ;
0 [label="X[12] <= 5.44\nfriedman_mse = 22.988\nsamples = 455\nvalue = -0.0"] ;
1 [label="X[5] <= 7.433\nfriedman_mse = 18.86\nsamples = 70\nvalue = 6.699"] ;
0 -> 1 [labeldistance=2.5, labelangle=45, headlabel="True"] ;
2 [label="X[6] <= 84.55\nfriedman_mse = 11.15\nsamples = 46\nvalue = 4.928"] ;
1 -> 2 ;
3 [label="X[5] <= 6.728\nfriedman_mse = 7.279\nsamples = 41\nvalue = 4.214"] ;
2 -> 3 ;
4 [label="friedman_mse = 4.454\nsamples = 14\nvalue = 1.95"] ;
3 -> 4 ;
5 [label="friedman_mse = 4.708\nsamples = 27\nvalue = 5.388"] ;
3 -> 5 ;
6 [label="X[0] <= 3.061\nfriedman_mse = 4.405\nsamples = 5\nvalue = 10.786"] ;
2 -> 6 ;
7 [label="friedman_mse = 0.137\nsamples = 2\nvalue = 8.25"] ;
6 -> 7 ;
8 [label="friedman_mse = 0.106\nsamples = 3\nvalue = 12.476"] ;
6 -> 8 ;
9 [label="X[12] <= 5.205\nfriedman_mse = 16.107\nsamples = 24\nvalue = 10.093"] ;
1 -> 9 ;
10 [label="X[7] <= 3.207\nfriedman_mse = 11.188\nsamples = 23\nvalue = 10.577"] ;
9 -> 10 ;
11 [label="friedman_mse = 5.119\nsamples = 9\nvalue = 12.194"] ;
10 -> 11 ;
12 [label="friedman_mse = 12.329\nsamples = 14\nvalue = 9.538"] ;
10 -> 12 ;
13 [label="friedman_mse = 0.0\nsamples = 1\nvalue = -1.036"] ;
9 -> 13 ;
14 [label="X[12] <= 14.095\nfriedman_mse = 14.095\nsamples = 385\nvalue = -1.218"] ;
0 -> 14 [labeldistance=2.5, labelangle=-45, headlabel="False"] ;
15 [label="X[5] <= 7.083\nfriedman_mse = 11.833\nsamples = 217\nvalue = 0.413"] ;
14 -> 15 ;
16 [label="X[7] <= 1.227\nfriedman_mse = 9.095\nsamples = 199\nvalue = -0.027"] ;
15 -> 16 ;
17 [label="friedman_mse = 0.0\nsamples = 2\nvalue = 11.981"] ;
16 -> 17 ;
18 [label="friedman_mse = 7.709\nsamples = 197\nvalue = -0.149"] ;
16 -> 18 ;
19 [label="X[0] <= 10.217\nfriedman_mse = 16.249\nsamples = 18\nvalue = 5.282"] ;
15 -> 19 ;
20 [label="friedman_mse = 8.89\nsamples = 17\nvalue = 5.961"] ;
19 -> 20 ;
21 [label="friedman_mse = 0.0\nsamples = 1\nvalue = -6.272"] ;
19 -> 21 ;
22 [label="X[7] <= 2.064\nfriedman_mse = 9.142\nsamples = 168\nvalue = -3.325"] ;
14 -> 22 ;
23 [label="X[0] <= 15.574\nfriedman_mse = 8.322\nsamples = 81\nvalue = -4.652"] ;
22 -> 23 ;
24 [label="friedman_mse = 7.682\nsamples = 60\nvalue = -3.99"] ;
23 -> 24 ;
25 [label="friedman_mse = 5.311\nsamples = 21\nvalue = -6.546"] ;
23 -> 25 ;
26 [label="X[11] <= 378.085\nfriedman_mse = 6.737\nsamples = 87\nvalue = -2.089"] ;
22 -> 26 ;
27 [label="friedman_mse = 4.183\nsamples = 38\nvalue = -3.304"] ;
26 -> 27 ;
28 [label="friedman_mse = 6.684\nsamples = 49\nvalue = -1.146"] ;
26 -> 28 ;
}
