digraph Tree {
node [shape=box] ;
0 [label="X[5] <= 6.838\nfriedman_mse = 22.033\nsamples = 455\nvalue = -0.0"] ;
1 [label="X[12] <= 14.115\nfriedman_mse = 12.778\nsamples = 375\nvalue = -1.283"] ;
0 -> 1 [labeldistance=2.5, labelangle=45, headlabel="True"] ;
2 [label="X[7] <= 1.434\nfriedman_mse = 10.654\nsamples = 214\nvalue = 0.293"] ;
1 -> 2 ;
3 [label="X[11] <= 339.985\nfriedman_mse = 7.309\nsamples = 5\nvalue = 10.406"] ;
2 -> 3 ;
4 [label="friedman_mse = 0.0\nsamples = 1\nvalue = 5.004"] ;
3 -> 4 ;
5 [label="friedman_mse = 0.017\nsamples = 4\nvalue = 11.756"] ;
3 -> 5 ;
6 [label="X[9] <= 222.5\nfriedman_mse = 8.228\nsamples = 209\nvalue = 0.051"] ;
2 -> 6 ;
7 [label="friedman_mse = 9.697\nsamples = 7\nvalue = 7.151"] ;
6 -> 7 ;
8 [label="friedman_mse = 6.37\nsamples = 202\nvalue = -0.195"] ;
6 -> 8 ;
9 [label="X[7] <= 2.064\nfriedman_mse = 7.917\nsamples = 161\nvalue = -3.377"] ;
1 -> 9 ;
10 [label="X[9] <= 551.5\nfriedman_mse = 6.097\nsamples = 77\nvalue = -4.759"] ;
9 -> 10 ;
11 [label="friedman_mse = 2.307\nsamples = 20\nvalue = -2.784"] ;
10 -> 11 ;
12 [label="friedman_mse = 5.579\nsamples = 57\nvalue = -5.452"] ;
10 -> 12 ;
13 [label="X[6] <= 77.35\nfriedman_mse = 6.23\nsamples = 84\nvalue = -2.11"] ;
9 -> 13 ;
14 [label="friedman_mse = 2.837\nsamples = 18\nvalue = -0.058"] ;
13 -> 14 ;
15 [label="friedman_mse = 5.694\nsamples = 66\nvalue = -2.67"] ;
13 -> 15 ;
16 [label="X[5] <= 7.437\nfriedman_mse = 21.55\nsamples = 80\nvalue = 6.013"] ;
0 -> 16 [labeldistance=2.5, labelangle=-45, headlabel="False"] ;
17 [label="X[4] <= 0.659\nfriedman_mse = 13.429\nsamples = 52\nvalue = 4.045"] ;
16 -> 17 ;
18 [label="X[7] <= 1.97\nfriedman_mse = 8.989\nsamples = 49\nvalue = 4.575"] ;
17 -> 18 ;
19 [label="friedman_mse = 3.918\nsamples = 4\nvalue = 9.167"] ;
18 -> 19 ;
20 [label="friedman_mse = 7.4\nsamples = 45\nvalue = 4.167"] ;
18 -> 20 ;
21 [label="X[0] <= 13.929\nfriedman_mse = 6.235\nsamples = 3\nvalue = -4.621"] ;
17 -> 21 ;
22 [label="friedman_mse = 0.0\nsamples = 1\nvalue = -1.095"] ;
21 -> 22 ;
23 [label="friedman_mse = 0.027\nsamples = 2\nvalue = -6.385"] ;
21 -> 23 ;
24 [label="X[0] <= 2.742\nfriedman_mse = 16.082\nsamples = 28\nvalue = 9.668"] ;
16 -> 24 ;
25 [label="X[10] <= 14.8\nfriedman_mse = 12.222\nsamples = 27\nvalue = 10.067"] ;
24 -> 25 ;
26 [label="friedman_mse = 6.692\nsamples = 14\nvalue = 11.453"] ;
25 -> 26 ;
27 [label="friedman_mse = 13.876\nsamples = 13\nvalue = 8.573"] ;
25 -> 27 ;
28 [label="friedman_mse = -0.0\nsamples = 1\nvalue = -1.103"] ;
24 -> 28 ;
}
