digraph Tree {
node [shape=box] ;
0 [label="X[12] <= 5.44\nfriedman_mse = 21.716\nsamples = 455\nvalue = -0.0"] ;
1 [label="X[5] <= 7.433\nfriedman_mse = 17.781\nsamples = 70\nvalue = 6.459"] ;
0 -> 1 [labeldistance=2.5, labelangle=45, headlabel="True"] ;
2 [label="X[6] <= 84.55\nfriedman_mse = 10.578\nsamples = 46\nvalue = 4.768"] ;
1 -> 2 ;
3 [label="X[5] <= 6.785\nfriedman_mse = 7.051\nsamples = 41\nvalue = 4.082"] ;
2 -> 3 ;
4 [label="friedman_mse = 4.906\nsamples = 18\nvalue = 2.291"] ;
3 -> 4 ;
5 [label="friedman_mse = 4.254\nsamples = 23\nvalue = 5.484"] ;
3 -> 5 ;
6 [label="X[7] <= 1.617\nfriedman_mse = 4.03\nsamples = 5\nvalue = 10.391"] ;
2 -> 6 ;
7 [label="friedman_mse = 0.112\nsamples = 3\nvalue = 12.007"] ;
6 -> 7 ;
8 [label="friedman_mse = 0.112\nsamples = 2\nvalue = 7.967"] ;
6 -> 8 ;
9 [label="X[11] <= 361.925\nfriedman_mse = 15.603\nsamples = 24\nvalue = 9.7"] ;
1 -> 9 ;
10 [label="friedman_mse = 0.0\nsamples = 1\nvalue = -1.092"] ;
9 -> 10 ;
11 [label="X[7] <= 3.207\nfriedman_mse = 10.998\nsamples = 23\nvalue = 10.169"] ;
9 -> 11 ;
12 [label="friedman_mse = 5.042\nsamples = 9\nvalue = 11.754"] ;
11 -> 12 ;
13 [label="friedman_mse = 12.173\nsamples = 14\nvalue = 9.15"] ;
11 -> 13 ;
14 [label="X[12] <= 14.795\nfriedman_mse = 13.467\nsamples = 385\nvalue = -1.174"] ;
0 -> 14 [labeldistance=2.5, labelangle=-45, headlabel="False"] ;
15 [label="X[5] <= 7.083\nfriedman_mse = 11.437\nsamples = 237\nvalue = 0.233"] ;
14 -> 15 ;
16 [label="X[7] <= 1.227\nfriedman_mse = 9.018\nsamples = 219\nvalue = -0.166"] ;
15 -> 16 ;
17 [label="friedman_mse = 0.0\nsamples = 2\nvalue = 11.507"] ;
16 -> 17 ;
18 [label="friedman_mse = 7.834\nsamples = 217\nvalue = -0.273"] ;
16 -> 18 ;
19 [label="X[2] <= 12.53\nfriedman_mse = 15.424\nsamples = 18\nvalue = 5.082"] ;
15 -> 19 ;
20 [label="friedman_mse = 8.466\nsamples = 17\nvalue = 5.743"] ;
19 -> 20 ;
21 [label="friedman_mse = 0.0\nsamples = 1\nvalue = -6.156"] ;
19 -> 21 ;
22 [label="X[4] <= 0.603\nfriedman_mse = 8.469\nsamples = 148\nvalue = -3.428"] ;
14 -> 22 ;
23 [label="X[5] <= 6.843\nfriedman_mse = 8.283\nsamples = 55\nvalue = -1.856"] ;
22 -> 23 ;
24 [label="friedman_mse = 6.726\nsamples = 54\nvalue = -2.033"] ;
23 -> 24 ;
25 [label="friedman_mse = 0.0\nsamples = 1\nvalue = 7.665"] ;
23 -> 25 ;
26 [label="X[0] <= 9.87\nfriedman_mse = 6.255\nsamples = 93\nvalue = -4.357"] ;
22 -> 26 ;
27 [label="friedman_mse = 4.711\nsamples = 55\nvalue = -3.388"] ;
26 -> 27 ;
28 [label="friedman_mse = 5.16\nsamples = 38\nvalue = -5.76"] ;
26 -> 28 ;
}
