digraph Tree {
node [shape=box] ;
0 [label="X[12] <= 7.685\nfriedman_mse = 21.418\nsamples = 455\nvalue = -0.0"] ;
1 [label="X[5] <= 7.437\nfriedman_mse = 19.068\nsamples = 136\nvalue = 4.18"] ;
0 -> 1 [labeldistance=2.5, labelangle=45, headlabel="True"] ;
2 [label="X[12] <= 4.63\nfriedman_mse = 10.736\nsamples = 108\nvalue = 2.806"] ;
1 -> 2 ;
3 [label="X[10] <= 19.15\nfriedman_mse = 8.8\nsamples = 23\nvalue = 5.98"] ;
2 -> 3 ;
4 [label="friedman_mse = 3.742\nsamples = 19\nvalue = 4.927"] ;
3 -> 4 ;
5 [label="friedman_mse = 2.545\nsamples = 4\nvalue = 10.981"] ;
3 -> 5 ;
6 [label="X[9] <= 222.5\nfriedman_mse = 7.796\nsamples = 85\nvalue = 1.947"] ;
2 -> 6 ;
7 [label="friedman_mse = 3.275\nsamples = 8\nvalue = 6.04"] ;
6 -> 7 ;
8 [label="friedman_mse = 6.345\nsamples = 77\nvalue = 1.522"] ;
6 -> 8 ;
9 [label="X[10] <= 18.3\nfriedman_mse = 15.835\nsamples = 28\nvalue = 9.48"] ;
1 -> 9 ;
10 [label="X[0] <= 0.577\nfriedman_mse = 10.966\nsamples = 25\nvalue = 10.185"] ;
9 -> 10 ;
11 [label="friedman_mse = 12.128\nsamples = 19\nvalue = 9.444"] ;
10 -> 11 ;
12 [label="friedman_mse = 0.035\nsamples = 6\nvalue = 12.533"] ;
10 -> 12 ;
13 [label="X[11] <= 393.835\nfriedman_mse = 17.714\nsamples = 3\nvalue = 3.602"] ;
9 -> 13 ;
14 [label="friedman_mse = 3.69\nsamples = 2\nvalue = 0.84"] ;
13 -> 14 ;
15 [label="friedman_mse = 0.0\nsamples = 1\nvalue = 9.125"] ;
13 -> 15 ;
16 [label="X[12] <= 15.145\nfriedman_mse = 11.795\nsamples = 319\nvalue = -1.782"] ;
0 -> 16 [labeldistance=2.5, labelangle=-45, headlabel="False"] ;
17 [label="X[7] <= 1.301\nfriedman_mse = 10.19\nsamples = 179\nvalue = -0.447"] ;
16 -> 17 ;
18 [label="X[0] <= 10.592\nfriedman_mse = 9.201\nsamples = 3\nvalue = 9.247"] ;
17 -> 18 ;
19 [label="friedman_mse = 0.0\nsamples = 2\nvalue = 11.391"] ;
18 -> 19 ;
20 [label="friedman_mse = 0.0\nsamples = 1\nvalue = 4.957"] ;
18 -> 20 ;
21 [label="X[9] <= 219.5\nfriedman_mse = 8.578\nsamples = 176\nvalue = -0.613"] ;
17 -> 21 ;
22 [label="friedman_mse = 24.401\nsamples = 6\nvalue = 4.944"] ;
21 -> 22 ;
23 [label="friedman_mse = 6.891\nsamples = 170\nvalue = -0.809"] ;
21 -> 23 ;
24 [label="X[7] <= 2.064\nfriedman_mse = 8.659\nsamples = 140\nvalue = -3.488"] ;
16 -> 24 ;
25 [label="X[4] <= 0.675\nfriedman_mse = 7.758\nsamples = 72\nvalue = -4.7"] ;
24 -> 25 ;
26 [label="friedman_mse = 9.503\nsamples = 27\nvalue = -3.329"] ;
25 -> 26 ;
27 [label="friedman_mse = 4.906\nsamples = 45\nvalue = -5.523"] ;
25 -> 27 ;
28 [label="X[0] <= 0.699\nfriedman_mse = 6.413\nsamples = 68\nvalue = -2.206"] ;
24 -> 28 ;
29 [label="friedman_mse = 5.315\nsamples = 31\nvalue = -0.902"] ;
28 -> 29 ;
30 [label="friedman_mse = 4.717\nsamples = 37\nvalue = -3.298"] ;
28 -> 30 ;
}
