digraph Tree {
node [shape=box] ;
0 [label="X[12] <= 5.44\nfriedman_mse = 20.828\nsamples = 455\nvalue = -0.0"] ;
1 [label="X[5] <= 7.433\nfriedman_mse = 17.058\nsamples = 70\nvalue = 6.278"] ;
0 -> 1 [labeldistance=2.5, labelangle=45, headlabel="True"] ;
2 [label="X[6] <= 84.55\nfriedman_mse = 10.191\nsamples = 46\nvalue = 4.643"] ;
1 -> 2 ;
3 [label="X[5] <= 6.728\nfriedman_mse = 6.89\nsamples = 41\nvalue = 3.976"] ;
2 -> 3 ;
4 [label="friedman_mse = 4.28\nsamples = 14\nvalue = 1.817"] ;
3 -> 4 ;
5 [label="friedman_mse = 4.571\nsamples = 27\nvalue = 5.096"] ;
3 -> 5 ;
6 [label="X[10] <= 19.0\nfriedman_mse = 3.716\nsamples = 5\nvalue = 10.111"] ;
2 -> 6 ;
7 [label="friedman_mse = 0.127\nsamples = 2\nvalue = 7.788"] ;
6 -> 7 ;
8 [label="friedman_mse = 0.109\nsamples = 3\nvalue = 11.66"] ;
6 -> 8 ;
9 [label="X[11] <= 361.925\nfriedman_mse = 15.27\nsamples = 24\nvalue = 9.413"] ;
1 -> 9 ;
10 [label="friedman_mse = 0.0\nsamples = 1\nvalue = -1.14"] ;
9 -> 10 ;
11 [label="X[10] <= 14.8\nfriedman_mse = 10.882\nsamples = 23\nvalue = 9.871"] ;
9 -> 11 ;
12 [label="friedman_mse = 6.356\nsamples = 11\nvalue = 11.172"] ;
11 -> 12 ;
13 [label="friedman_mse = 12.06\nsamples = 12\nvalue = 8.679"] ;
11 -> 13 ;
14 [label="X[12] <= 11.675\nfriedman_mse = 13.044\nsamples = 385\nvalue = -1.142"] ;
0 -> 14 [labeldistance=2.5, labelangle=-45, headlabel="False"] ;
15 [label="X[5] <= 7.083\nfriedman_mse = 11.538\nsamples = 163\nvalue = 0.881"] ;
14 -> 15 ;
16 [label="X[0] <= 7.044\nfriedman_mse = 9.038\nsamples = 146\nvalue = 0.331"] ;
15 -> 16 ;
17 [label="friedman_mse = 7.511\nsamples = 144\nvalue = 0.181"] ;
16 -> 17 ;
18 [label="friedman_mse = 0.0\nsamples = 2\nvalue = 11.163"] ;
16 -> 18 ;
19 [label="X[5] <= 7.994\nfriedman_mse = 8.174\nsamples = 17\nvalue = 5.598"] ;
15 -> 19 ;
20 [label="friedman_mse = 2.225\nsamples = 15\nvalue = 4.688"] ;
19 -> 20 ;
21 [label="friedman_mse = 0.088\nsamples = 2\nvalue = 12.417"] ;
19 -> 21 ;
22 [label="X[12] <= 19.83\nfriedman_mse = 8.942\nsamples = 222\nvalue = -2.626"] ;
14 -> 22 ;
23 [label="X[2] <= 3.985\nfriedman_mse = 7.422\nsamples = 153\nvalue = -1.777"] ;
22 -> 23 ;
24 [label="friedman_mse = 11.424\nsamples = 4\nvalue = 3.821"] ;
23 -> 24 ;
25 [label="friedman_mse = 6.451\nsamples = 149\nvalue = -1.928"] ;
23 -> 25 ;
26 [label="X[10] <= 19.65\nfriedman_mse = 7.169\nsamples = 69\nvalue = -4.509"] ;
22 -> 26 ;
27 [label="friedman_mse = 5.503\nsamples = 15\nvalue = -2.155"] ;
26 -> 27 ;
28 [label="friedman_mse = 5.665\nsamples = 54\nvalue = -5.163"] ;
26 -> 28 ;
}
